<?xml version="1.0"?>
<opencv_storage>
<my_nn type_id="opencv-ml-ann-mlp">
  <layer_sizes type_id="opencv-matrix">
    <rows>1</rows>
    <cols>3</cols>
    <dt>i</dt>
    <data>
      3840 30 3</data></layer_sizes>
  <activation_function>SIGMOID_SYM</activation_function>
  <f_param1>6.6666666666666663e-001</f_param1>
  <f_param2>1.7159000000000000e+000</f_param2>
  <min_val>-9.4999999999999996e-001</min_val>
  <max_val>9.4999999999999996e-001</max_val>
  <min_val1>-9.7999999999999998e-001</min_val1>
  <max_val1>9.7999999999999998e-001</max_val1>
  <training_params>
    <train_method>RPROP</train_method>
    <dw0>1.0000000000000001e-001</dw0>
    <dw_plus>1.2000000000000000e+000</dw_plus>
    <dw_minus>5.0000000000000000e-001</dw_minus>
    <dw_min>1.1920928955078125e-007</dw_min>
    <dw_max>50.</dw_max>
    <term_criteria><epsilon>1.0000000474974513e-003</epsilon>
      <iterations>5000</iterations></term_criteria></training_params>
  <input_scale>
    1. 0. 1. 0. 1. 0. 1.5620941552195127e+001 -9.1681918922477879e-001
    1. 0. 7.2733465289261652e+000 -1.0245364614610202e+000
    1.0781548581696633e+001 -7.9142831173374140e-001 1. 0.
    5.6669680622018657e+000 -9.5586142507658689e-001
    1.0905306267849475e+001 -8.2871540183259584e-001 1. 0.
    5.9367234983411850e+000 -1.0154974599094773e+000
    1.0891052432961816e+001 -8.2074516078744542e-001 1. 0.
    5.7598624343996763e+000 -9.7943689499321485e-001
    9.5673861283379829e+000 -7.4802654035885840e-001 1. 0.
    5.3342941100958106e+000 -9.4594689154290013e-001
    1.0174909162442615e+001 -7.5879211297651861e-001 1. 0.
    5.6581320624681029e+000 -9.3635609758666449e-001
    1.1227389274884180e+001 -8.6685687042245163e-001 1. 0.
    5.9580495772674888e+000 -1.0433514280959277e+000
    9.9720876976124551e+000 -7.9930734277296100e-001 1. 0.
    5.7711747461850189e+000 -1.0330220199008873e+000
    9.8445605054540124e+000 -8.2422860787896535e-001 1. 0.
    5.4477991758684929e+000 -1.0099601911621499e+000
    1.0186035240617096e+001 -8.1882247158183274e-001 1. 0.
    5.5934343174542178e+000 -1.0050211336339114e+000
    9.6670597892656893e+000 -8.0345270476794461e-001 1. 0.
    5.3631724700066323e+000 -9.9500264457643739e-001
    1.0324483732402532e+001 -8.4899584063919775e-001 1. 0.
    5.5957893199242914e+000 -1.0274725907014155e+000
    1.1342424091717962e+001 -8.5077784135011369e-001 1. 0.
    6.0479354445754909e+000 -1.0368130060948226e+000
    1.1078646877361306e+001 -8.5900359517038427e-001 1. 0.
    5.8880804786666863e+000 -1.0450128608977238e+000
    1.0414382337265129e+001 -8.3347690509779959e-001 1. 0.
    5.5554488969386213e+000 -9.7180271920128802e-001
    1.1558018663999780e+001 -8.2557294300441497e-001 1. 0.
    6.1476005492405772e+000 -1.0159860342074711e+000
    1.1546306102129742e+001 -8.1926772439093176e-001 1. 0.
    6.3215540803779993e+000 -1.0151107881299255e+000
    1.1624522859474324e+001 -8.5709039266897402e-001 1. 0.
    6.5694839278306310e+000 -1.1049419943433549e+000
    1.1646580028038342e+001 -8.5036685362958475e-001 1. 0.
    6.1228656164817856e+000 -1.0338552326980293e+000
    1.2178551190303336e+001 -9.2500116499196894e-001 1. 0.
    6.0459326795817319e+000 -1.0692827318667355e+000
    1.1513728487848059e+001 -8.6832441062601351e-001 1. 0.
    5.7254085657152425e+000 -1.0150533568557307e+000
    1.2189270486428045e+001 -9.1297340624258716e-001 1. 0.
    6.1351742576224915e+000 -1.0697465962827695e+000
    1.0312945269869036e+001 -8.1611975888343991e-001 1. 0.
    5.4329702645617468e+000 -9.8063989760504677e-001
    9.8206850624225464e+000 -7.9496604305323415e-001 1. 0.
    4.9888739981776720e+000 -9.3884104730940465e-001
    1.1179460897810383e+001 -8.1888053942712102e-001 1. 0.
    5.3580222725827076e+000 -9.2804394628126563e-001
    1.3643395981202556e+001 -9.2493575681256857e-001 1. 0.
    6.2384061020386667e+000 -1.0235035630721483e+000
    1.0946140662087508e+001 -8.2923221556422300e-001 1. 0.
    5.5060105152684180e+000 -9.7495609722093945e-001
    1.0369892580873922e+001 -8.3302197155461821e-001 1. 0.
    5.0558731331586033e+000 -9.7228694206738198e-001
    1.3298041493640659e+001 -9.5417329644566018e-001 1. 0.
    5.7210981278647646e+000 -1.0316436262891151e+000
    1.2678560448699264e+001 -8.4694021921889084e-001 1. 0.
    5.8433093476253228e+000 -9.4312821865659835e-001 1. 0. 1. 0. 1. 0.
    1.0826719244145572e+001 -8.2043634749719130e-001
    7.6293017815097084e+000 -8.4208199973339382e-001 1. 0.
    8.2389827424869875e+000 -1.0619866508427906e+000
    8.0763638000917357e+000 -8.6775528058903117e-001
    7.6987060232917992e+000 -1.0016870084382019e+000
    7.1810388845172985e+000 -1.0189244306516547e+000
    8.2458684227599512e+000 -8.9776089662804814e-001
    6.3289092587813194e+000 -9.7912952328492209e-001
    6.9091598607143583e+000 -9.8329181126981657e-001
    7.7536356244114195e+000 -8.1513941567128312e-001
    6.3278904968318228e+000 -9.9116477441323558e-001
    7.3898364589810246e+000 -1.0516939369708793e+000
    7.9965290532933242e+000 -8.3500729183398259e-001
    6.5987480161903767e+000 -1.0555134606937713e+000
    6.8177753606546938e+000 -9.8554412133210456e-001
    7.7411589613122196e+000 -8.2030280858832050e-001
    5.8997312099528401e+000 -9.5763728613361654e-001
    6.4850739967346662e+000 -9.4192988927499965e-001
    7.1501511661405255e+000 -8.0217342077425602e-001
    5.9391366293349179e+000 -8.8550688752038198e-001
    6.7608553613690283e+000 -1.0469223226379958e+000
    7.0551966747839305e+000 -8.6864795041643872e-001
    6.3633845331199668e+000 -1.0067587940652245e+000
    6.3238835658233992e+000 -1.0168243270440049e+000
    6.8804222806295599e+000 -8.6551539104001807e-001
    6.0142178369958801e+000 -9.9593175159963487e-001
    6.4524267081843174e+000 -1.0724246024383139e+000
    7.1342109398035749e+000 -9.2858357452257578e-001
    5.7303846930183422e+000 -9.9114229836839762e-001
    6.7942882961214437e+000 -1.0873275463480845e+000
    7.1228397045366121e+000 -9.0579596432267628e-001
    6.0784846003862061e+000 -9.9613546530682562e-001
    6.3129550323158510e+000 -1.0868123802662366e+000
    6.6775348457177186e+000 -9.4006571947163997e-001
    5.7909613118430308e+000 -1.0013640673830519e+000
    7.1781090776199372e+000 -1.2008538621559963e+000
    7.5874053399805428e+000 -9.8983678620282334e-001
    6.2069325907256356e+000 -1.0743742341106912e+000
    7.6610916645099092e+000 -1.2051462488161218e+000
    8.2993674357032425e+000 -1.0254331548405391e+000
    6.4845445422263381e+000 -1.0382153702781305e+000
    6.7418646387153203e+000 -1.0570350269346338e+000
    7.2699124095543937e+000 -8.8876866816669653e-001
    6.2427022235186103e+000 -1.0033381507155903e+000
    7.0135167458984409e+000 -1.0913661591723967e+000
    7.4617396466580894e+000 -8.7752990866709613e-001
    6.4361621118911128e+000 -1.0091469911749114e+000
    7.7188181519700461e+000 -1.1362013667222717e+000
    7.8700401551292281e+000 -9.0947885700013020e-001
    6.9990854683136954e+000 -1.0493724419074748e+000
    7.3195794885261307e+000 -1.0926343526704982e+000
    7.8096203041647838e+000 -9.2735496484433277e-001
    7.0343942294642599e+000 -1.0296882875023947e+000
    6.7822502756688818e+000 -1.0692133411926443e+000
    7.2722516494897915e+000 -9.1886104433996485e-001
    6.6562718274758037e+000 -1.0454045674366470e+000
    6.9377582389193089e+000 -1.0879286088762805e+000
    7.0309106622484041e+000 -8.9360903999924357e-001
    6.5796569138328413e+000 -1.0479453872924065e+000
    7.2590730536342765e+000 -1.1097553342876043e+000
    7.2144059206431281e+000 -8.7411657428725276e-001
    6.9836078800295400e+000 -1.0993929586325233e+000
    6.4755516036676815e+000 -1.0055605535848604e+000
    6.6237269021937797e+000 -8.3197340793307717e-001
    6.2253099829082990e+000 -1.0088101596432140e+000
    6.3444135972533156e+000 -1.0327079716063716e+000
    6.4131450030230104e+000 -8.5444236181992861e-001
    6.0383056114581679e+000 -1.0116549022369505e+000
    5.9262541332802652e+000 -9.6976869798364340e-001
    6.2800261253194982e+000 -8.1613016975477970e-001
    5.6246980590848334e+000 -9.6796557376864822e-001
    5.8977342359972269e+000 -9.3043612501838746e-001
    6.5604315571521479e+000 -8.0815285250210644e-001
    5.4040679511829612e+000 -9.1099975077737394e-001
    6.7451190634065092e+000 -9.7785726219505142e-001
    7.3864678791047185e+000 -8.6252150857694365e-001
    6.0962786453566178e+000 -9.2993623239567080e-001
    7.0582800297339245e+000 -1.0003940461331049e+000
    7.0975899231806281e+000 -8.1519713447900399e-001
    6.6499104665664044e+000 -1.0126798297770885e+000
    6.5759238400705167e+000 -9.7845447014916542e-001
    7.0637666233977425e+000 -8.2225918618280824e-001
    6.0596358729341375e+000 -9.8361556364312286e-001
    6.3026819224317254e+000 -9.7864106491634462e-001
    7.0182539527696477e+000 -8.4855966015786333e-001
    5.4622746363183454e+000 -9.6588898003569923e-001
    7.5334542142616190e+000 -1.0696932022145011e+000
    7.3131085551460808e+000 -8.2570949518097603e-001
    6.3889419458430403e+000 -1.0544419517698567e+000
    7.3899388039024663e+000 -1.0043875770895090e+000
    7.4795873358254727e+000 -7.9617702045933170e-001
    6.4404436225354802e+000 -9.7239421506518897e-001
    1.1424774092748843e+001 -8.5337789110207940e-001
    7.5667582426510513e+000 -8.4300451297955403e-001 1. 0.
    1.0159079407774140e+001 -8.3277523634594863e-001
    6.9334709145275211e+000 -8.3039736140122677e-001 1. 0.
    7.8584540263150693e+000 -1.0799166592448848e+000
    7.3328171967162277e+000 -8.5334325927874977e-001
    7.8068526079118916e+000 -1.0398903916349818e+000
    7.8652508043162808e+000 -1.1316335637520751e+000
    7.8515553949222019e+000 -9.1499579625271754e-001
    7.3684598578469389e+000 -1.0967056644003488e+000
    7.1227965327007272e+000 -1.0632939357772806e+000
    7.5456801466196488e+000 -9.0915206789463232e-001
    6.4999280822861367e+000 -9.6751795626665860e-001
    7.3047668390181517e+000 -1.1147783637734574e+000
    7.6833921936928773e+000 -9.4391181725206597e-001
    6.7056105848683609e+000 -1.0553921394758259e+000
    6.6931093687152927e+000 -1.0498683000168141e+000
    7.2618670448461566e+000 -9.3113279517524927e-001
    6.2456054957285021e+000 -1.0005805976981907e+000
    6.2187471778311130e+000 -1.0245314364870248e+000
    6.4426730754188126e+000 -8.9224283723737341e-001
    6.0499835746953590e+000 -9.6384116953885313e-001
    6.1442924239332903e+000 -9.9156795522610253e-001
    6.2633450941226894e+000 -8.5918751946226035e-001
    6.1007829202341872e+000 -9.2456669313725615e-001
    6.2486630345467660e+000 -1.0567432640334433e+000
    6.7962444549989032e+000 -9.5661821759912113e-001
    6.1851354356735824e+000 -9.9267171248908381e-001
    6.5680720789232163e+000 -1.1844570102126279e+000
    7.0049176982720427e+000 -1.0298583999867121e+000
    6.0110399156569292e+000 -1.0436978247216933e+000
    6.6697089485403778e+000 -1.1893765489335943e+000
    6.9349350784550818e+000 -1.0454027295604471e+000
    6.2930494108129924e+000 -1.0452302486367839e+000
    6.8337386375390219e+000 -1.2205234303577963e+000
    7.0419275395073893e+000 -1.0290160211351755e+000
    6.2958389782314566e+000 -1.0525309829441194e+000
    6.7618393657390508e+000 -1.2381962670747346e+000
    7.3435485512508283e+000 -1.0938097320662501e+000
    6.1167727501010853e+000 -1.0477696740074360e+000
    6.7037888579362601e+000 -1.1911627834494078e+000
    7.1291730717685509e+000 -1.0527660137316690e+000
    6.2602754423955513e+000 -1.0242445917862486e+000
    6.8529587726350840e+000 -1.1848156042111915e+000
    7.2549084306054041e+000 -1.0610812722858323e+000
    6.5947215071625767e+000 -1.0275881215305001e+000
    7.3416492701778298e+000 -1.2199119270403300e+000
    7.3896995037739366e+000 -1.0244712648687093e+000
    7.5671749116965463e+000 -1.1012689599020236e+000
    7.6011038784388969e+000 -1.2129349898097870e+000
    7.3216378442117049e+000 -1.0076695758278584e+000
    7.6725113898231738e+000 -1.0638328170428049e+000
    7.0681811595630730e+000 -1.1763087355569195e+000
    6.9629004798051941e+000 -9.8066393774613969e-001
    7.3808933417192018e+000 -1.0865373435140588e+000
    6.4160685513889240e+000 -1.1185494994324505e+000
    6.7649463057274266e+000 -1.0078997606096702e+000
    6.5919380308161921e+000 -1.0252182443780298e+000
    6.1895500044505445e+000 -1.0722038223827643e+000
    6.3957954818230593e+000 -9.4956894940441794e-001
    6.5156246215483593e+000 -1.0397742304412496e+000
    6.4372206303728188e+000 -1.1112411984176247e+000
    6.3786193540182543e+000 -9.4597774475397589e-001
    6.6416684501557581e+000 -1.0358436351230780e+000
    6.2603232333664431e+000 -1.0857030909569845e+000
    6.0927440180751340e+000 -8.9986987498613036e-001
    6.3277095760705375e+000 -1.0476442265705792e+000
    5.5403705552520623e+000 -9.7203984529469523e-001
    5.5819892227767776e+000 -8.2255192489277096e-001
    5.3825854664875639e+000 -9.4477770028831354e-001
    5.4768655533263404e+000 -9.5680030610010924e-001
    5.6434543667858215e+000 -8.3274298009558623e-001
    5.5986702770592016e+000 -9.5837764140982529e-001
    5.8762299681914296e+000 -9.7489437125931111e-001
    6.1285804524286975e+000 -8.5244681507348652e-001
    6.0543178483158204e+000 -9.6515585613349530e-001
    6.3116546441021413e+000 -9.9235231957523284e-001
    6.4716232571475931e+000 -8.7236517360509980e-001
    6.5602242937762574e+000 -9.9230040184013946e-001
    6.3657461767538210e+000 -9.7198314138046060e-001
    6.1601524938669545e+000 -8.1107237208102878e-001
    6.4713369936918079e+000 -9.9439185856039380e-001
    6.4606791591595947e+000 -9.7396482403299411e-001
    6.3884407513949970e+000 -7.9636096480636243e-001
    6.3318386712931769e+000 -9.8071993343834851e-001
    6.6839639800936181e+000 -9.6980817123230389e-001
    7.0592108133663505e+000 -8.1587175435817039e-001
    6.0686806213991584e+000 -9.7309342032918988e-001
    7.7490156229245493e+000 -1.0670308795952537e+000
    7.4309802387855521e+000 -8.2780332835432513e-001
    6.9044638692168263e+000 -1.0679210796931771e+000
    7.5269670631850696e+000 -1.0256513920385115e+000
    7.5876497394072926e+000 -8.1431312757906371e-001
    6.9382538904695119e+000 -1.0405915608763534e+000
    1.0861232990617525e+001 -7.9879811354849295e-001
    7.2307575321682052e+000 -7.9780021445939786e-001 1. 0.
    1.1928138654406702e+001 -9.4548803509530721e-001
    7.9174254693084007e+000 -9.1585381589311998e-001 1. 0.
    8.1668793675874731e+000 -1.0985719614992746e+000
    8.1321073586027879e+000 -9.1720619817322746e-001
    7.6360642339212292e+000 -1.0009093407776577e+000
    8.1495654518929008e+000 -1.1746332409019042e+000
    8.1873351741695188e+000 -9.6081074697897906e-001
    7.4832799260697342e+000 -1.0885477395245726e+000
    7.4094466251030759e+000 -1.1500678300701874e+000
    7.8149509569627993e+000 -9.8716212102307632e-001
    6.7309156856704710e+000 -1.0222695217858777e+000
    6.8926890001458458e+000 -1.1042103336103832e+000
    7.2497695504820916e+000 -9.6580304417820551e-001
    6.1727917068473834e+000 -9.7169773345254973e-001
    6.6442825930810363e+000 -1.1094361071965877e+000
    7.1558283238172828e+000 -9.8669739285755254e-001
    5.8627379745528829e+000 -1.0003421713987071e+000
    6.3904917421449730e+000 -1.1170252677873969e+000
    6.8494937403536564e+000 -9.9304347788396852e-001
    5.6309401114573125e+000 -9.6821326698601706e-001
    6.0404929602927142e+000 -1.0691663580586457e+000
    6.3438139578126318e+000 -9.6245215395017425e-001
    5.6733007594303810e+000 -9.7252744611141995e-001
    6.3584822305774491e+000 -1.1515117455881743e+000
    6.5087213093086715e+000 -1.0146557129405354e+000
    5.7766254713331966e+000 -9.6870724107508588e-001
    6.8598576079512510e+000 -1.3197453066374569e+000
    6.7268290631645584e+000 -1.0725480056477985e+000
    6.4140140179645098e+000 -1.1749410456981639e+000
    6.2549626007691428e+000 -1.1894993242894343e+000
    6.4924874867266604e+000 -1.0424151467398648e+000
    6.3132462545699175e+000 -1.0911274380383618e+000
    6.5605690208115197e+000 -1.2407165199746022e+000
    5.9563226955971498e+000 -9.6856335202896660e-001
    6.6614166288995822e+000 -1.0992643267450330e+000
    5.7720428970865285e+000 -1.1547494551517810e+000
    5.6834858653281444e+000 -9.7894248437392828e-001
    5.9886170466206323e+000 -1.0430207161189937e+000
    6.2989279192066920e+000 -1.2475322474945327e+000
    6.4571768492535391e+000 -1.1260689227323610e+000
    6.0228681060044300e+000 -1.0152723791094309e+000
    7.1030499826903180e+000 -1.2996676000487970e+000
    6.8970953609509849e+000 -1.1251646154919199e+000
    6.8136205698002295e+000 -1.0141604487286282e+000
    6.7595482577485235e+000 -1.2563144402658841e+000
    6.2935375364844051e+000 -1.0498809839252758e+000
    7.3597686836795368e+000 -1.0614789766390149e+000
    6.1691163261273969e+000 -1.1726191608297429e+000
    5.8579291705270142e+000 -1.0003209559980972e+000
    6.7705003735094573e+000 -1.0302983929077374e+000
    6.1946954377733654e+000 -1.1812362719780067e+000
    5.8541278674784136e+000 -1.0080913938011027e+000
    6.7348845206483547e+000 -1.0373478194844372e+000
    6.0108870556240284e+000 -1.1473164198542154e+000
    5.7831317114662424e+000 -9.9376284531857750e-001
    6.4582298836957550e+000 -1.0066818820942858e+000
    5.9160641321154408e+000 -1.1468765805647050e+000
    5.6090092724279321e+000 -9.6894428830179369e-001
    6.4153705017483302e+000 -1.0687296298931026e+000
    5.8465109473363182e+000 -1.1423672670138656e+000
    5.5710575034330176e+000 -9.6102562520577262e-001
    6.0909214235237989e+000 -1.0443772578119241e+000
    5.6926829104776155e+000 -1.1525917754390096e+000
    5.6730129228802726e+000 -9.7157992486841849e-001
    5.4910861093919232e+000 -1.0493680332795523e+000
    5.4888666627240745e+000 -1.0443840160406102e+000
    5.7331044832084750e+000 -9.1448799897055488e-001
    5.1380995062971984e+000 -9.5433682985190749e-001
    6.1644702873957362e+000 -1.1040293707449562e+000
    6.0774678221472440e+000 -9.2640459722464419e-001
    6.0646970769565067e+000 -1.0510027304467402e+000
    6.3175748248877035e+000 -1.1179491740113312e+000
    6.2024169783758767e+000 -9.4499393576239821e-001
    6.3967509101660225e+000 -1.0917734005523074e+000
    6.0162133857174283e+000 -1.0311972455820506e+000
    6.0712859349449388e+000 -8.9421376183277224e-001
    5.8242765363393048e+000 -9.7422319505418553e-001
    6.5527498212147792e+000 -1.0459031480101426e+000
    6.2888589985272088e+000 -8.8592385707972687e-001
    6.5583597252955226e+000 -1.0258865702217996e+000
    6.7979308601665736e+000 -1.0692137635660954e+000
    6.7458161920770667e+000 -9.0818456993556007e-001
    6.1924706622052108e+000 -9.7406458116922201e-001
    7.1852939427145150e+000 -1.0928278155909708e+000
    7.4183286590692390e+000 -9.2425551278509943e-001
    6.1520218086372447e+000 -9.9930984232674502e-001
    7.5843766917168844e+000 -1.0487291232574485e+000
    7.5531233719618349e+000 -8.6404636802565005e-001
    6.7687681476615440e+000 -1.0058840468616066e+000
    7.2423395574492506e+000 -9.9739799076099056e-001
    7.4466556676151887e+000 -8.1258355274075322e-001
    6.4036637229331204e+000 -9.6128613571789301e-001
    1.0534341202728372e+001 -8.1082553775019428e-001
    7.1578693259260975e+000 -8.1529699948647161e-001 1. 0.
    1.1887435010044825e+001 -9.4570687362818850e-001
    8.0319132728293070e+000 -9.2861865526663934e-001 1. 0.
    8.0817849638479888e+000 -1.1051104772271940e+000
    8.0755768496934124e+000 -9.1225878154653262e-001
    7.6308304894124523e+000 -1.0510181896930286e+000
    7.8541300166460797e+000 -1.1569487088324217e+000
    7.9337517039899996e+000 -9.5296673052044856e-001
    6.8987535545019165e+000 -1.0296269183271289e+000
    7.2822544303432482e+000 -1.1669778139004441e+000
    7.4463770732275583e+000 -9.7051966305445447e-001
    6.5944600366418964e+000 -1.0536768191466110e+000
    6.7385120436042181e+000 -1.1269101697492034e+000
    6.9334058579461351e+000 -9.4765168331127991e-001
    5.9734296862511691e+000 -1.0141384660501045e+000
    6.4091674508921095e+000 -1.1399103861702327e+000
    6.4233661217187068e+000 -9.5533726222314752e-001
    5.7562158811158834e+000 -1.0456019555823459e+000
    6.3261299458479003e+000 -1.1817278282692063e+000
    6.2648563376864521e+000 -9.8699808733934213e-001
    5.5321753443227415e+000 -1.0063154400149332e+000
    6.0788363580459484e+000 -1.1687608381330510e+000
    5.8946200131785966e+000 -9.7231425673063976e-001
    5.8439085623518903e+000 -1.0734904547937372e+000
    5.7641279443820723e+000 -1.1623134208213162e+000
    6.0371835181941469e+000 -1.0177726778170122e+000
    5.4151081136079657e+000 -1.0442244851658167e+000
    6.0980888462417457e+000 -1.2506189577984110e+000
    6.3100707103494500e+000 -1.0671206139984115e+000
    5.7765380595152385e+000 -1.1330384129609712e+000
    6.0049647515446960e+000 -1.2321334333762863e+000
    6.0471398817564967e+000 -1.0524727935069436e+000
    5.7424765879867632e+000 -1.0587400743727484e+000
    6.3923455101065727e+000 -1.2665175352904341e+000
    5.9794174357677754e+000 -1.0659254125243318e+000
    6.7106148663147502e+000 -1.0782991844295031e+000
    6.0680258010753825e+000 -1.2631038955952076e+000
    5.7983685412308059e+000 -1.0719942179202386e+000
    6.4059117502943899e+000 -1.0831812070661082e+000
    5.8064607868378539e+000 -1.2809894715391457e+000
    5.6908545805953503e+000 -1.1140444806300687e+000
    6.1161870849232001e+000 -1.0854938366838953e+000
    5.9309380486224343e+000 -1.2834612806578480e+000
    5.5455497192106398e+000 -1.0960029158116533e+000
    6.2929994036957506e+000 -1.0439736285927024e+000
    5.6769812903721899e+000 -1.1873739927234908e+000
    5.1893960804255652e+000 -1.0192597194443518e+000
    6.1606455691683495e+000 -9.5399074786108518e-001
    5.7642040381347766e+000 -1.2364780649619789e+000
    5.3035167430405439e+000 -1.0403925735599027e+000
    6.0559944148707183e+000 -1.0419127659406704e+000
    5.7847317929120763e+000 -1.2354376360027273e+000
    5.5311759420232436e+000 -1.0834130520057688e+000
    6.1129974966132137e+000 -1.0281995024540478e+000
    5.8144086965577975e+000 -1.2431321077457489e+000
    5.4905826215850562e+000 -1.0914694278933381e+000
    6.5665014189422042e+000 -1.1043487402702961e+000
    5.7310575305212961e+000 -1.2241190442972814e+000
    5.2213434258454390e+000 -1.0234721054579821e+000
    6.4303558364427582e+000 -1.1276882610825094e+000
    5.3080733707054764e+000 -1.1752004972046357e+000
    5.1797464762469660e+000 -1.0130839644493421e+000
    5.4961166123214955e+000 -1.0489063378813239e+000
    5.0456658471101177e+000 -1.0976153939509050e+000
    5.1966730700551773e+000 -9.5843122130841207e-001
    5.1301648032082570e+000 -1.0221184497137217e+000
    5.3593886253394620e+000 -1.0895774031855585e+000
    5.5785384804236351e+000 -9.5753512337433866e-001
    5.4685305532739026e+000 -1.0477116789565568e+000
    5.8559555995406631e+000 -1.1372981787157002e+000
    5.7757522571594704e+000 -9.5337899395696402e-001
    6.1496339485111227e+000 -1.1409301834364489e+000
    5.7352104172369618e+000 -1.0886975702425989e+000
    5.7873216205017508e+000 -9.4399062691118951e-001
    5.6033586958332240e+000 -1.0319238749671984e+000
    5.8287211870399815e+000 -1.0884915749343023e+000
    5.8231715883587558e+000 -9.1405429590913545e-001
    5.6268018797044856e+000 -1.0444411172073338e+000
    6.4346773380604514e+000 -1.0641129376736400e+000
    6.2707067306797546e+000 -8.9547613420455530e-001
    6.4297922560799767e+000 -1.0228624160042377e+000
    6.4548616579751332e+000 -1.0685479605720130e+000
    6.5558007842204908e+000 -9.1167476402314906e-001
    6.0705485675912998e+000 -9.9857641443068679e-001
    6.2293452473841491e+000 -1.0199773560780041e+000
    6.3691736262813912e+000 -8.6583376310720672e-001
    5.8436722193789183e+000 -9.8463800257999334e-001
    6.5154907293589153e+000 -1.0009734889531492e+000
    6.4647997042809822e+000 -8.3992949475361978e-001
    6.2030549241020410e+000 -9.8285752016890060e-001
    6.4632057210019571e+000 -9.6804727742792029e-001
    6.5523989806997474e+000 -8.3472805974604125e-001
    6.3535596169681572e+000 -9.5512135265193177e-001
    9.0384191666262179e+000 -8.0131956879589183e-001
    6.3946083538075307e+000 -8.3536930614280713e-001 1. 0.
    1.1120637946330577e+001 -9.2090178595059324e-001
    8.1253963416192843e+000 -9.6735401297082380e-001 1. 0.
    8.3068120121533013e+000 -1.1658598188853337e+000
    8.0512444968799919e+000 -9.3301721949403416e-001
    7.3866704104253484e+000 -1.0575095705717779e+000
    7.8787728505343404e+000 -1.2305083362577329e+000
    7.7581271841927402e+000 -9.8109169076741820e-001
    6.5486331527402770e+000 -1.0753309278034038e+000
    6.8772661533043955e+000 -1.1478827215271599e+000
    7.0881108584335459e+000 -9.4663890019544927e-001
    6.1387457364087492e+000 -1.0542667261837939e+000
    6.3120702495135435e+000 -1.1435842737731166e+000
    6.4342145262112380e+000 -9.5456272724118529e-001
    5.6267496705568529e+000 -1.0245514249246261e+000
    6.0524521748991109e+000 -1.1347167234745579e+000
    5.9040884546930226e+000 -9.3181191570525634e-001
    5.4582711305355760e+000 -1.0256800555478740e+000
    6.1599278318001565e+000 -1.2442485651270494e+000
    6.0138819898607991e+000 -1.0357882316737437e+000
    5.3195473104760138e+000 -1.0439346759521262e+000
    6.4126346042739151e+000 -1.3192114296009447e+000
    6.1932737984190096e+000 -1.0994125010349420e+000
    5.8973092020102156e+000 -1.1535481324705892e+000
    5.5278024537459753e+000 -1.1913686040564457e+000
    5.7235778957714345e+000 -1.0464887951010562e+000
    5.1204925395192653e+000 -1.0346108836645438e+000
    5.1986888807476523e+000 -1.1851793258720189e+000
    5.2994913827370818e+000 -1.0019335860622340e+000
    5.1990156724242675e+000 -1.1268355274706674e+000
    5.5047592142516963e+000 -1.2525002278533166e+000
    5.3182838807692310e+000 -1.0424456831296198e+000
    5.3249722000770205e+000 -1.0897140094372588e+000
    5.7732100562807345e+000 -1.2625992309568643e+000
    5.4455606807590664e+000 -1.0800354813532629e+000
    6.0369431076536086e+000 -1.0900424188233411e+000
    5.9452277391421617e+000 -1.3239881076114786e+000
    5.3782760928902311e+000 -1.1001237842631661e+000
    6.2738641958556913e+000 -1.1091249031025265e+000
    5.4615251934374545e+000 -1.2976461196598845e+000
    5.1842281926871570e+000 -1.1182956287028467e+000
    5.5477597560454788e+000 -1.0217786794866572e+000
    5.2893555742568070e+000 -1.2812194320753649e+000
    4.8590488468265942e+000 -1.0782189444202122e+000
    5.3916299064831703e+000 -1.0286987845377908e+000
    5.5305204243978103e+000 -1.2891847282668643e+000
    4.8912796407378467e+000 -1.0754350819765519e+000
    5.7744975328876302e+000 -1.0181434204441513e+000
    5.6256464016058292e+000 -1.3067777212819218e+000
    4.9995445043508839e+000 -1.0688796605074034e+000
    5.9593470954981926e+000 -1.0959785447797132e+000
    5.6012681805768185e+000 -1.2317824050170227e+000
    5.1803581739560576e+000 -1.0422435936578982e+000
    5.9656481109494930e+000 -1.0468582053018434e+000
    5.5105224754915865e+000 -1.1986671352232066e+000
    5.2129896964567175e+000 -1.0253383359104724e+000
    6.0090994652406744e+000 -1.0889692510466289e+000
    5.3167820181412981e+000 -1.1909502312269564e+000
    5.0444579541834278e+000 -1.0144580020401357e+000
    5.6804371909550504e+000 -1.1026454215646968e+000
    5.0139435649463477e+000 -1.1697085090025190e+000
    4.9525400961355119e+000 -1.0201815721593741e+000
    5.0971157232623030e+000 -1.0761792508615449e+000
    5.1464351019044168e+000 -1.1751392839137342e+000
    5.2050535707882348e+000 -1.0500599787154756e+000
    5.1413560267756360e+000 -1.0747442296188139e+000
    5.6848755781089890e+000 -1.2137501408999822e+000
    5.5292231799930764e+000 -1.0522504177922332e+000
    5.5665817367159081e+000 -1.1053967346359992e+000
    6.0185837685858568e+000 -1.2535435771891761e+000
    5.7901874557949577e+000 -1.0485797693638716e+000
    5.4912485684337380e+000 -1.1169291569348927e+000
    5.7407036164543408e+000 -1.1447199716966847e+000
    5.8008279501705280e+000 -9.7923268249592932e-001
    5.1715578821831345e+000 -1.0436907615289228e+000
    6.2663361514900711e+000 -1.1691355037379181e+000
    6.2418450064025821e+000 -9.7004767413601078e-001
    5.6586385225147344e+000 -1.0921650863893579e+000
    6.4535049974272924e+000 -1.1585365012345978e+000
    6.1561060153193337e+000 -9.4018908286299319e-001
    5.8386824545629787e+000 -1.0458924266923224e+000
    6.3295595655182231e+000 -1.0888531204252796e+000
    6.3051631433421393e+000 -9.0508962401982751e-001
    5.9048862977802825e+000 -1.0501787193928656e+000
    6.0423438397462030e+000 -1.0035352410722049e+000
    6.2969365042839192e+000 -8.5221687247493294e-001
    5.4447525814960018e+000 -9.7926107532596673e-001
    6.6548240241303587e+000 -1.0366199406781971e+000
    6.8812818277808008e+000 -8.7070176876944960e-001
    5.8653802186598094e+000 -9.9618735824394433e-001
    7.0326838348222580e+000 -1.0251870251168063e+000
    7.4417993259298889e+000 -8.9448618436783245e-001
    6.3373022479272834e+000 -9.6890836177259743e-001
    9.8943535909050997e+000 -8.6051080592366536e-001
    7.2735283936008894e+000 -9.1431625053110288e-001 1. 0.
    9.9682391085003577e+000 -8.3965419817641984e-001
    7.1829576027981616e+000 -8.6303530736277845e-001 1. 0.
    7.8692863074486059e+000 -1.1123891067919076e+000
    7.4775352199570300e+000 -8.6976660663879779e-001
    6.8373943638264079e+000 -1.0174374780962010e+000
    7.3974449436652856e+000 -1.1436356184000311e+000
    7.4580754747997613e+000 -9.0064503597712142e-001
    5.9509560711758906e+000 -1.0410601428212707e+000
    7.0997183456282116e+000 -1.1852549238438272e+000
    7.3193741978541649e+000 -9.5257429899648804e-001
    5.6222850702866740e+000 -1.0266533176877710e+000
    6.8101124996505735e+000 -1.2255841654629065e+000
    6.9644591404753813e+000 -9.6858645136227373e-001
    5.4271349680591063e+000 -1.0709537125419908e+000
    6.5410860072276549e+000 -1.2601427359357806e+000
    6.6245837312491220e+000 -1.0105422513834412e+000
    5.1654505291495898e+000 -1.0864383409868226e+000
    5.8307655359636632e+000 -1.2148199801969817e+000
    5.9464417297698065e+000 -1.0325022597866382e+000
    4.8515473755127871e+000 -1.0580056960391220e+000
    5.8570674802178768e+000 -1.2847346746507262e+000
    5.6913680795350237e+000 -1.0778213378940884e+000
    5.1452607214236767e+000 -1.1182274242099366e+000
    5.6614268605342977e+000 -1.2684900418219849e+000
    5.6200606093686565e+000 -1.0863336205217327e+000
    5.1306301221223052e+000 -1.1061735910466914e+000
    5.4027783335168786e+000 -1.2808736975627319e+000
    5.4710501287833893e+000 -1.0830457391117803e+000
    4.9256732620540236e+000 -1.1275264898472199e+000
    5.2877509799452245e+000 -1.2985730210668822e+000
    5.1228954596125211e+000 -1.1017882083102875e+000
    5.2109250396966331e+000 -1.1415564386729271e+000
    5.1052401124625808e+000 -1.2281261516863755e+000
    4.9645742714231229e+000 -1.0746458816706534e+000
    5.2427641887382324e+000 -1.0714650920906315e+000
    5.4854450618527668e+000 -1.2719364944706832e+000
    5.0454420491660734e+000 -1.0831589941435693e+000
    5.8657854644459180e+000 -1.1011895639633786e+000
    5.5451998063370098e+000 -1.3479602894319960e+000
    5.2468692186057995e+000 -1.1492373960448379e+000
    5.5834349599701332e+000 -1.0887951863762644e+000
    5.5933808578507040e+000 -1.3922154290461417e+000
    5.4295737797082841e+000 -1.2166132357549355e+000
    5.5571654855759718e+000 -1.1029571143354355e+000
    5.9185290319367425e+000 -1.3972809459578517e+000
    5.5530052530865710e+000 -1.2025475135667512e+000
    5.8742758380164624e+000 -1.0458742290819290e+000
    5.8897117378547676e+000 -1.3492829005742892e+000
    5.3930639681440145e+000 -1.1278916483855188e+000
    5.8740710335815196e+000 -1.0666855178956605e+000
    5.8541839179161155e+000 -1.3493551092947118e+000
    5.4541643042429975e+000 -1.1463103465773561e+000
    5.8982691974845585e+000 -1.1075477473411179e+000
    5.3160332035777014e+000 -1.2603482914599851e+000
    5.2504031984089741e+000 -1.1155406910030941e+000
    5.3978123080504030e+000 -1.1008095428901026e+000
    4.9814228314673885e+000 -1.2150745736193063e+000
    4.9008447587504183e+000 -1.0543335801531981e+000
    5.0669178207385039e+000 -1.1077248946738056e+000
    5.1042598634949261e+000 -1.2532927573083339e+000
    4.9961647619383953e+000 -1.0849088286214350e+000
    4.9326428291434841e+000 -1.1173386693900940e+000
    5.2098297874864974e+000 -1.2149884901907360e+000
    4.9848772824968881e+000 -1.0291931459509054e+000
    5.0339067430669440e+000 -1.0997944693246546e+000
    5.3559840781266930e+000 -1.2175989250242594e+000
    4.9571730975509505e+000 -1.0016571474804079e+000
    5.0527550626171891e+000 -1.1085975928840293e+000
    5.1004473070308869e+000 -1.1715638160516337e+000
    4.9701618072217224e+000 -9.7813898688674483e-001
    4.7218660783568360e+000 -1.0897695843215360e+000
    5.5784519153878804e+000 -1.1781814238482426e+000
    5.5745738046312239e+000 -9.8944388111109560e-001
    4.9813760809712466e+000 -1.0807093714115064e+000
    5.8987724044314698e+000 -1.1552548368763376e+000
    5.7958633465787193e+000 -9.4166656799970161e-001
    5.2785023657806436e+000 -1.0984178716880162e+000
    6.0157472928354956e+000 -1.1422829220822364e+000
    5.6820565008201518e+000 -9.0202597785051797e-001
    5.3308996209520521e+000 -1.0903044504887238e+000
    6.0845574096887169e+000 -1.1027204798573362e+000
    5.8654710197036133e+000 -8.8672037155817751e-001
    5.4345120399556821e+000 -1.0762611427437716e+000
    6.6541679459339660e+000 -1.0704195642352514e+000
    6.6784641252785688e+000 -8.4199604783931037e-001
    5.4772711091259900e+000 -1.0394684805768477e+000
    6.8810970437851209e+000 -1.0342613816036133e+000
    6.7433974091181437e+000 -7.9084046994504431e-001
    5.8384716313612923e+000 -1.0356335923734472e+000
    6.8493868554780333e+000 -9.9681591884465248e-001
    7.0888090160341823e+000 -8.0485929552911084e-001
    5.9430553869497746e+000 -1.0002097685061260e+000
    9.9564082726446586e+000 -8.1199819164308762e-001
    7.1989456247716657e+000 -8.5304047365349445e-001 1. 0.
    9.4377846357421120e+000 -8.3472193161429586e-001
    6.9456946682141503e+000 -8.7359307180447909e-001 1. 0.
    7.4743182300152418e+000 -1.0906946905040336e+000
    6.9310885907828474e+000 -8.4656813141235143e-001
    6.6512900131493362e+000 -1.0099834447967861e+000
    6.9087197834336109e+000 -1.0966165093794771e+000
    6.8538884957178849e+000 -8.3022290431085322e-001
    5.6727606640652537e+000 -1.0483896583811148e+000
    6.4934891770172234e+000 -1.1052985584733648e+000
    6.9299336728504217e+000 -8.9765360909335079e-001
    5.2721442295144509e+000 -1.0112471554773510e+000
    6.4255150334570654e+000 -1.2050045554568769e+000
    6.4801023416748116e+000 -9.6093462708240651e-001
    5.3406978793986157e+000 -1.1072448221611297e+000
    5.8565454708285785e+000 -1.2078969018872707e+000
    5.6871946718346136e+000 -9.2713130621737583e-001
    4.7209741812737240e+000 -1.0981488400733532e+000
    5.7858013117338762e+000 -1.2340477370427718e+000
    5.6527746178469087e+000 -9.5490965516694604e-001
    4.5954409681557724e+000 -1.1217181598548567e+000
    5.4819755300342594e+000 -1.2094426928544328e+000
    5.2622176853030558e+000 -9.5944839149101291e-001
    4.7153238405939373e+000 -1.1358449793845868e+000
    5.4443832486435646e+000 -1.2866305650662422e+000
    5.1450205507485913e+000 -1.0402246462545517e+000
    4.7595022071106277e+000 -1.1548520229418922e+000
    5.0109768500488663e+000 -1.2769481752307947e+000
    4.8812769912290701e+000 -1.0558061286865172e+000
    4.5007832258330200e+000 -1.1486887658194997e+000
    5.0092489435788314e+000 -1.2900184681095355e+000
    4.8200616460058496e+000 -1.0862375540981342e+000
    4.7757073340785778e+000 -1.1423695120705617e+000
    5.1146949633718846e+000 -1.3304290648596189e+000
    4.8298156467494122e+000 -1.1165199017060998e+000
    5.2061569126296732e+000 -1.1895302703165951e+000
    5.4056756749026258e+000 -1.3649667844024089e+000
    4.9024320721437533e+000 -1.1436777626447518e+000
    5.4852213939889944e+000 -1.1538352236104257e+000
    5.1207852204615163e+000 -1.3290685607967552e+000
    4.7620438378574237e+000 -1.1267354498552609e+000
    5.4727687476044231e+000 -1.1468692378055214e+000
    5.0779609989173462e+000 -1.3287267738122590e+000
    4.7191999327550995e+000 -1.1486966436103150e+000
    5.6371264861643890e+000 -1.0945934642654100e+000
    5.2747390281619388e+000 -1.3542445914801544e+000
    4.8110209370376822e+000 -1.1692952914077959e+000
    6.1586159427743743e+000 -1.1231586727897023e+000
    5.2214141268661978e+000 -1.3172290533371984e+000
    4.7338099494195065e+000 -1.1170555210756439e+000
    5.8471893360001603e+000 -1.1072521493996712e+000
    4.9501019916025424e+000 -1.3031246612306442e+000
    4.6488282491735982e+000 -1.1413215905960568e+000
    5.3178400959214693e+000 -1.0916218474609991e+000
    4.7062026183882795e+000 -1.2920782997666611e+000
    4.4754621710952920e+000 -1.1203016334265639e+000
    4.9274350837583478e+000 -1.1379101387355708e+000
    4.9369159383947965e+000 -1.3143134196695592e+000
    4.6114140895959181e+000 -1.0937175745973513e+000
    5.0048526869414047e+000 -1.1935431582995202e+000
    5.0687456767039816e+000 -1.2743922989402878e+000
    4.7251729796892326e+000 -1.0416320991674763e+000
    4.7935900146301007e+000 -1.1402241728811446e+000
    4.9063705426473545e+000 -1.2064198957435248e+000
    4.5667734657794083e+000 -9.7542650072767922e-001
    4.6123655272967348e+000 -1.1010631307909999e+000
    4.9812200243114768e+000 -1.1900626160750416e+000
    4.6518062881924980e+000 -9.7004466154309299e-001
    4.5778496196354057e+000 -1.1007523361981126e+000
    5.1687358375086836e+000 -1.1842692060873592e+000
    5.1024866378164111e+000 -9.7529434906565282e-001
    4.5486810166353928e+000 -1.1046076824355213e+000
    5.6342761702899340e+000 -1.1720696092799028e+000
    5.4677223917508142e+000 -9.3568073507142746e-001
    4.6665497097351185e+000 -1.0797844410825728e+000
    5.6506495366821010e+000 -1.1652445613682800e+000
    5.6152907228492781e+000 -9.1966271122530019e-001
    4.6581621168682652e+000 -1.1402302102113879e+000
    5.9798570841246841e+000 -1.1621620828876755e+000
    5.5867230558078766e+000 -8.7846733344980255e-001
    4.7969692174227090e+000 -1.0900388412569910e+000
    6.7849122115930136e+000 -1.2121393992704945e+000
    6.1209246515249713e+000 -8.9250045549636547e-001
    5.3120170395336039e+000 -1.0823004483993888e+000
    6.7753797040855090e+000 -1.1622188243690148e+000
    6.4120209421814458e+000 -8.9148524022059794e-001
    5.6784377273133533e+000 -1.1131161094135715e+000
    6.6916091739102557e+000 -1.0563466590112986e+000
    6.6671909811190648e+000 -8.5222700772986437e-001
    5.7387289215866621e+000 -1.0296868690360561e+000
    6.7101573510746801e+000 -1.0570279696373048e+000
    7.0174845225870373e+000 -8.7763276142699975e-001
    5.9447231545334880e+000 -1.0387568882290494e+000
    1.0230456709243132e+001 -8.8371596617837944e-001
    6.9759122267328300e+000 -8.8416852094644371e-001 1. 0.
    1.0579571206206387e+001 -8.9315187784489125e-001
    8.1087935352608262e+000 -9.6026066571426694e-001 1. 0.
    8.4078008526420831e+000 -1.1930204664026527e+000
    8.1334394142660695e+000 -9.4924948463987024e-001
    6.8884741461847101e+000 -1.0356155855831739e+000
    7.1838297927891546e+000 -1.1813514914835546e+000
    7.5175463697969587e+000 -9.6260065648123705e-001
    5.5635849761160427e+000 -1.0592123304412711e+000
    5.7385304234269592e+000 -1.0791722327674025e+000
    6.5090280280787871e+000 -9.5565981451996473e-001
    4.7166531027403176e+000 -1.0029250467169419e+000
    5.7429270806756447e+000 -1.1569753638285707e+000
    5.8923257050511193e+000 -9.3193853878117494e-001
    4.9374316658467894e+000 -1.1313673413621643e+000
    5.7002897579774450e+000 -1.2010998277800922e+000
    5.4324112755207175e+000 -9.0593093313066519e-001
    4.5962190722808174e+000 -1.1203796367744743e+000
    5.3365683383590357e+000 -1.1777956703609400e+000
    5.1081860518402822e+000 -9.0926132619480782e-001
    4.1516671611013765e+000 -1.0571955263599226e+000
    5.4722531910546790e+000 -1.2449368689549682e+000
    4.9347302170660488e+000 -9.2374351763859441e-001
    4.5220870500432495e+000 -1.1692001314829570e+000
    5.2260873218396151e+000 -1.2178066499845035e+000
    4.8617621609524440e+000 -9.4282970006852018e-001
    4.2336608259231028e+000 -1.0979817135235757e+000
    4.8834173433159487e+000 -1.2610752113556074e+000
    4.6648994872807643e+000 -9.8385610341090757e-001
    4.0741240990968866e+000 -1.1505431931409684e+000
    4.9670374799425590e+000 -1.3363133907724432e+000
    4.7015178165937561e+000 -1.0672000048914239e+000
    4.3676859341423491e+000 -1.1970617263788801e+000
    4.8692462565025822e+000 -1.2993684974005515e+000
    4.6286175295660641e+000 -1.0583122698688336e+000
    4.7035373660894173e+000 -1.1812026693737510e+000
    4.9151245560290766e+000 -1.2881037073651207e+000
    4.5793366509254136e+000 -1.0827624717302060e+000
    5.0927170279914744e+000 -1.1720314506994218e+000
    4.9357093624716368e+000 -1.3462411665550797e+000
    4.6130781409357677e+000 -1.1208726981813941e+000
    5.2536553004841249e+000 -1.2078532605703947e+000
    4.7965032444245228e+000 -1.3216529451461891e+000
    4.3742616801986971e+000 -1.1010351568474548e+000
    5.3380317555875783e+000 -1.1424943655528703e+000
    4.8642954091903476e+000 -1.3123228635224509e+000
    4.3407694976099718e+000 -1.1147305897604693e+000
    5.7175553968432320e+000 -1.1189924491332646e+000
    4.6169797969241282e+000 -1.2881507911974603e+000
    4.2472697597424132e+000 -1.1174024704279024e+000
    5.1557782948258470e+000 -1.1011396059705776e+000
    4.6391004570426784e+000 -1.3337827715566315e+000
    4.2403825611464381e+000 -1.1239405969868994e+000
    4.9593918460117683e+000 -1.1736030103815434e+000
    5.0382942440709062e+000 -1.4076930871475595e+000
    4.6096833839486306e+000 -1.1432055738791751e+000
    4.9453068683313610e+000 -1.2425721888237686e+000
    5.0951163055419979e+000 -1.3651480399827882e+000
    4.7753365827029226e+000 -1.1019860071662202e+000
    4.7897454728936939e+000 -1.2552233814136546e+000
    4.8544198554672189e+000 -1.2731404172254479e+000
    4.6438194876177938e+000 -1.0406025007913813e+000
    4.4979367186911920e+000 -1.1874784942604868e+000
    4.9630035229683589e+000 -1.2846124552908094e+000
    4.6423195210280985e+000 -1.0224175894579148e+000
    4.3283113794373911e+000 -1.1507706793040540e+000
    5.3309399237485779e+000 -1.2714662293769674e+000
    5.0758234477185633e+000 -1.0154663515730424e+000
    4.4022625226733911e+000 -1.1341977783527650e+000
    5.3799447502836726e+000 -1.2130008683538716e+000
    5.3983254959613944e+000 -9.9984166397770802e-001
    4.3516764532689534e+000 -1.0980519598560630e+000
    5.7399142462743784e+000 -1.2437407106325884e+000
    5.7238949322377328e+000 -1.0355020333705296e+000
    4.3967629417837228e+000 -1.0678365178338087e+000
    5.9005408674326851e+000 -1.2646537917495932e+000
    5.7548150042103767e+000 -9.8827983702228872e-001
    4.3906076550475479e+000 -1.1226909890221632e+000
    5.9783560799163222e+000 -1.1745545195548888e+000
    5.8452583795871744e+000 -9.0353197322705470e-001
    4.3989949442399263e+000 -1.0545707638821120e+000
    6.5263592536508916e+000 -1.1701206915990909e+000
    6.2542664922399434e+000 -9.0668838925377759e-001
    5.0812839226521982e+000 -1.0592513100594239e+000
    6.7579515475143177e+000 -1.0985201880418327e+000
    6.6471018918393181e+000 -8.7488527929596616e-001
    5.6177447845106174e+000 -1.0549887420365778e+000
    6.9134839719465893e+000 -1.1480528989017711e+000
    6.8532122056967362e+000 -9.2332314317313124e-001
    6.1170574966621682e+000 -1.1285283602676377e+000
    6.4040201630201583e+000 -1.0474257299245344e+000
    6.6307241691820362e+000 -8.9493482710544725e-001
    6.1587675626264584e+000 -1.0577823675364737e+000
    9.2674476331164346e+000 -8.5172348411930476e-001
    6.2392613156956260e+000 -8.4558558516400761e-001 1. 0.
    9.9026092270442732e+000 -8.8253289513322408e-001
    7.2053503021864884e+000 -9.1541079732459552e-001 1. 0.
    7.6906162498627451e+000 -1.1592590586901534e+000
    7.0075163655226387e+000 -8.8919871091019920e-001
    6.9812928005162878e+000 -1.1040441040184314e+000
    6.2950713586904037e+000 -1.1088565422942800e+000
    6.1731165220515747e+000 -8.6522456250687318e-001
    5.2329674735047966e+000 -1.0544492236848182e+000
    5.3898475606591862e+000 -1.0698394481394775e+000
    5.7925345651094506e+000 -8.7896503920628311e-001
    4.4700595464044603e+000 -1.0396531641683704e+000
    5.5113527497780481e+000 -1.1186121876328994e+000
    5.7040572981132351e+000 -8.8859439430669085e-001
    4.4962609172096215e+000 -1.0711041528783027e+000
    6.0058966728192607e+000 -1.2645304752956872e+000
    5.7798165311781480e+000 -9.5943996658967323e-001
    4.5253819235862576e+000 -1.1062170802557301e+000
    5.7332272599459326e+000 -1.3187824343833792e+000
    5.5788941280118287e+000 -1.0320830034382498e+000
    4.1191947610517232e+000 -1.0895838283053350e+000
    5.4934484844998597e+000 -1.3467548139837968e+000
    5.2640838396061715e+000 -1.0095562579408941e+000
    4.1549691293316053e+000 -1.1972312585092530e+000
    5.5797662174436766e+000 -1.3678165030996592e+000
    5.2284190201566982e+000 -1.0173097054605007e+000
    4.1404586831711132e+000 -1.1731601072832505e+000
    5.2059352317504084e+000 -1.3309503441944588e+000
    4.8491233729379433e+000 -9.8738651102842390e-001
    4.0768863266213922e+000 -1.1872622626028757e+000
    4.7539630227606136e+000 -1.2991637154417230e+000
    4.6053763682189830e+000 -1.0242823167728075e+000
    4.0114991676442999e+000 -1.1963886929208707e+000
    4.7678628615206309e+000 -1.3553901585248893e+000
    4.5706941150008502e+000 -1.0889596454852370e+000
    4.2455238671167823e+000 -1.2029217808860295e+000
    4.7815713834163427e+000 -1.3798540411859077e+000
    4.4785394504054103e+000 -1.1145982294166781e+000
    4.8408217752439562e+000 -1.3062715910278051e+000
    4.6332067925823024e+000 -1.3496762082997864e+000
    4.2402512736029845e+000 -1.0884165676600936e+000
    4.9820514492166890e+000 -1.2646159003088446e+000
    4.5784038042277082e+000 -1.3347181093774438e+000
    4.3055181675626351e+000 -1.1299720183510025e+000
    4.7695560923569031e+000 -1.1348904826223172e+000
    4.9203122125954080e+000 -1.4249159119273629e+000
    4.3708047385223914e+000 -1.1650869551350351e+000
    5.0644942577753120e+000 -1.1534135054565569e+000
    4.6251641296300736e+000 -1.3605293842347499e+000
    4.3186037478410864e+000 -1.1404436671616682e+000
    4.5678953820551804e+000 -1.1259459041718238e+000
    5.0627349209638268e+000 -1.4381717875360194e+000
    4.6131540773532906e+000 -1.1441690313322275e+000
    4.7604461792939601e+000 -1.2139485715577811e+000
    4.9386734564361365e+000 -1.3957641747665142e+000
    4.4707348674608305e+000 -1.0542006615737696e+000
    4.6101874867127419e+000 -1.3039446309609655e+000
    4.6756517857650790e+000 -1.3342441284470437e+000
    4.3367550253226970e+000 -1.0256910728435993e+000
    4.2605778820934779e+000 -1.2646264627175259e+000
    4.9076549815088439e+000 -1.3753674095439510e+000
    4.5693099921556177e+000 -1.0765354810982035e+000
    4.3634854030528638e+000 -1.2636478323480671e+000
    5.1191274690409010e+000 -1.3412508611282561e+000
    4.6867233817571297e+000 -1.0031124110894174e+000
    4.2917658606986357e+000 -1.2381058332060035e+000
    4.9641398156227430e+000 -1.2304494943330451e+000
    4.7251682562957518e+000 -9.5755635908954873e-001
    4.0515182429891681e+000 -1.1410493047807546e+000
    5.1978660369101126e+000 -1.2328970955179979e+000
    4.9440140426953620e+000 -9.5616701738603860e-001
    4.1169885943939821e+000 -1.1205749811618848e+000
    5.4926031677262772e+000 -1.2709958622008846e+000
    5.1410406207367521e+000 -9.7025843241255250e-001
    4.1917008329298362e+000 -1.1244547664185274e+000
    5.8887063573364529e+000 -1.2782888881255223e+000
    5.5654938430544449e+000 -9.8979014788543196e-001
    4.2848586420929884e+000 -1.0846339269068270e+000
    5.9286372564956231e+000 -1.2009192499487555e+000
    5.8065842815376181e+000 -9.4288111632224236e-001
    4.4760209069834964e+000 -1.0740275629532239e+000
    6.2008832047342146e+000 -1.1242345032553189e+000
    5.9129196322360391e+000 -8.6966465286874162e-001
    5.3513876783872378e+000 -1.0920900539967060e+000
    6.0584532363597239e+000 -1.0420049589807092e+000
    5.7184155686996512e+000 -8.1475970105169127e-001
    5.7621544571224916e+000 -1.0702824665065380e+000
    5.5936965163747114e+000 -9.8611729698375261e-001
    5.3192119787117722e+000 -7.7546471151366991e-001
    5.5963791297731484e+000 -1.0574008536749764e+000
    6.2123318293620580e+000 -1.0501217413546688e+000
    5.5891449068357248e+000 -8.0884110943355259e-001
    6.3037704354757640e+000 -1.0829044615251127e+000
    8.5540611395995629e+000 -8.4634165035132680e-001
    5.8315437066928011e+000 -8.5105966660063237e-001 1. 0.
    8.5983394652066050e+000 -8.8643407359001669e-001
    6.1733629599596647e+000 -9.1163721945815190e-001 1. 0.
    6.9128982732005939e+000 -1.1405629957497068e+000
    6.1747156188338232e+000 -9.0777246002266221e-001
    7.2419600392826924e+000 -1.1214679358740149e+000
    6.4966501046992153e+000 -1.1770180490882878e+000
    6.1539590154331263e+000 -9.2728042603949268e-001
    5.4770288343801381e+000 -1.0563684372081130e+000
    5.7622699708414240e+000 -1.1400793376375380e+000
    5.7568005486301770e+000 -9.1636996170221052e-001
    4.7594330291673286e+000 -1.0470252300184126e+000
    5.5654962024420369e+000 -1.1766423676137787e+000
    5.9634869738365159e+000 -1.0034314602184826e+000
    4.3802433197505097e+000 -1.0279479629713941e+000
    5.9246953604098413e+000 -1.2703395997056144e+000
    5.8365311745963346e+000 -9.7836687126915689e-001
    4.4616610809464454e+000 -1.1054241619426899e+000
    5.6755796325929788e+000 -1.2907112912846685e+000
    5.2485292947535847e+000 -9.6755423622631154e-001
    4.1510978435264168e+000 -1.0637295245374327e+000
    5.1007052037790706e+000 -1.3145792524575306e+000
    4.9174306492348965e+000 -1.0103315239928548e+000
    3.8872718319327051e+000 -1.1412946810431346e+000
    4.7061567734203562e+000 -1.2684425629581741e+000
    4.7433320321777606e+000 -1.0180757868245800e+000
    3.8100878810041756e+000 -1.1572038875023878e+000
    4.9457619888689424e+000 -1.3550606372101142e+000
    4.6549347675384523e+000 -1.0244843152071634e+000
    3.8947709676460289e+000 -1.1960750279845833e+000
    4.7754091791601390e+000 -1.4053388563001057e+000
    4.3743253460898277e+000 -1.0404402138801574e+000
    3.8773083754822233e+000 -1.2583240354299239e+000
    4.3150020402294489e+000 -1.3562724209210593e+000
    4.0707768980320580e+000 -1.0607476107941183e+000
    3.8752296886873103e+000 -1.2396059143303633e+000
    4.3473677614123298e+000 -1.4077767260869700e+000
    4.0528830666031652e+000 -1.1245357029716447e+000
    4.2921932245556444e+000 -1.3264572725796770e+000
    4.4185695574573520e+000 -1.3893076466801948e+000
    3.9690665175734932e+000 -1.1173762070538524e+000
    4.9141433459235513e+000 -1.3599733560945619e+000
    4.2947340691349298e+000 -1.3587894618606773e+000
    3.8389741293628190e+000 -1.1083438475561089e+000
    4.6295702129049419e+000 -1.2090071640199944e+000
    4.2382513097775201e+000 -1.3133190883942087e+000
    3.9145921510171151e+000 -1.1201636068048419e+000
    4.5176345575563266e+000 -1.1026195884217929e+000
    4.4845898087180336e+000 -1.3493032155539841e+000
    4.0220379003592610e+000 -1.0814037611130494e+000
    4.6322103511268455e+000 -1.1862607865106172e+000
    4.3212803200349441e+000 -1.3330782359712297e+000
    4.0069152280249591e+000 -1.0704850312815328e+000
    4.1732424860803201e+000 -1.2011029233703436e+000
    4.3383351282410496e+000 -1.4138348224170134e+000
    3.8756549371659386e+000 -1.0616584225981096e+000
    4.1384858639127051e+000 -1.3544637759891200e+000
    4.6870540501054423e+000 -1.4452186283955542e+000
    4.1244180882774755e+000 -1.0675365628144349e+000
    4.1059216565546075e+000 -1.3334816207963975e+000
    5.0171778739920487e+000 -1.4042773545218847e+000
    4.5054001917805326e+000 -1.0172425497351907e+000
    4.0357263659645985e+000 -1.2507350401124544e+000
    5.2472852887341386e+000 -1.4353529711293551e+000
    5.0243705267093199e+000 -1.1054429229359368e+000
    3.8840695720630083e+000 -1.2082245534863809e+000
    5.2313122277905242e+000 -1.3460155719669469e+000
    5.0670612090036133e+000 -1.0651114512000874e+000
    3.9043073157726202e+000 -1.1476076865111098e+000
    5.2116167454162428e+000 -1.2864145319194469e+000
    4.9341215709427706e+000 -9.9567143072705033e-001
    3.8870840696530449e+000 -1.1050431959971156e+000
    5.5445263174000408e+000 -1.3260624184005945e+000
    5.1931267660824023e+000 -1.0162187299531027e+000
    3.9768964842041279e+000 -1.1016360121928956e+000
    5.4782465064449619e+000 -1.2235047992659558e+000
    5.1480039633128261e+000 -9.3828049887920972e-001
    4.1935714317450516e+000 -1.0943457891020292e+000
    5.7379562257779657e+000 -1.2041353157553123e+000
    5.2476361694725613e+000 -9.1004515455865453e-001
    4.7688803016488848e+000 -1.1168403294635820e+000
    5.7512346711280937e+000 -1.1335100915934957e+000
    5.2293384799903553e+000 -8.6282803077545855e-001
    5.5745277171081717e+000 -1.1637614984126796e+000
    5.7817051560619008e+000 -1.0836135445552062e+000
    5.3831745453397790e+000 -8.5906924094820214e-001
    5.7748402594675454e+000 -1.0937659287020085e+000
    6.1917590839774812e+000 -1.1573220393353918e+000
    5.8588414938939124e+000 -9.0593156291191190e-001
    5.9111773672587944e+000 -1.1533947652193179e+000
    6.6947729234653881e+000 -1.1030911230555991e+000
    6.2845700411991610e+000 -8.9086410097353341e-001
    6.1945590721787056e+000 -1.0186204133748482e+000
    8.8593302796442011e+000 -8.6857290248331420e-001
    6.3283751582368541e+000 -8.9665585424880445e-001 1. 0.
    8.8141671294092294e+000 -8.5105609690811501e-001
    6.3568884025922685e+000 -8.7825320581521182e-001 1. 0.
    7.4627781538159095e+000 -1.1231010261838681e+000
    6.2614735837687832e+000 -8.3801030107645891e-001
    7.7686492745118558e+000 -1.1007338125192516e+000
    6.3169259450202606e+000 -1.0637416713581709e+000
    5.7667143134364753e+000 -8.2200240491457566e-001
    5.8231971977216830e+000 -1.0228821673473383e+000
    5.6684661840462329e+000 -1.0667021928109981e+000
    5.5905805785160494e+000 -8.5291247550061289e-001
    4.8439830867313134e+000 -1.0181169716738008e+000
    5.2999034334471284e+000 -1.1002443955600172e+000
    5.3840774507899800e+000 -9.0355736632235184e-001
    4.6087203022123697e+000 -1.0534276474450288e+000
    5.1434878276251448e+000 -1.1956519937766195e+000
    5.0857853811777796e+000 -9.6097081325775713e-001
    4.5526236960873092e+000 -1.1587595273802542e+000
    5.3139357338392053e+000 -1.2724933288863038e+000
    5.2431004840857991e+000 -1.0586921721004185e+000
    4.3022196370362007e+000 -1.0876808623973984e+000
    5.2756237185432369e+000 -1.4068601700732402e+000
    5.3516359691527651e+000 -1.1573445700540510e+000
    4.0088397708273193e+000 -1.1595576557078746e+000
    4.9332266587487048e+000 -1.4287776584563137e+000
    5.0684097774432812e+000 -1.1987040883845745e+000
    3.6865512008073886e+000 -1.1423736952507522e+000
    4.5564081890478816e+000 -1.3995603241938479e+000
    4.4053536074441064e+000 -1.1037530163035771e+000
    3.5815419325578062e+000 -1.1931392037638924e+000
    4.5887509841837391e+000 -1.4755221025756431e+000
    4.3892989101032365e+000 -1.1600423419375905e+000
    3.5876586194002571e+000 -1.2268537157544497e+000
    4.5884211406920219e+000 -1.5870344312285327e+000
    4.4059889977448679e+000 -1.2676494612850169e+000
    3.6706563829782790e+000 -1.2773812790058983e+000
    4.3663712951794196e+000 -1.5405129996032942e+000
    4.0419717450962951e+000 -1.1938951212191788e+000
    3.9870202896251765e+000 -1.3781862587132621e+000
    4.2763628620887539e+000 -1.5068642572523152e+000
    3.9517404273567274e+000 -1.2170468214623706e+000
    4.2701762815130468e+000 -1.3618546990685496e+000
    4.1744071503596825e+000 -1.4743562967153934e+000
    3.8678523537311635e+000 -1.2512882661574420e+000
    4.2926463962722128e+000 -1.2263461941778888e+000
    4.0610241289279889e+000 -1.4101835550163775e+000
    3.8496852584968853e+000 -1.2639529756557086e+000
    4.3609448225024448e+000 -1.1086607514876430e+000
    4.0487574906311341e+000 -1.4014592821818495e+000
    3.8721362625763880e+000 -1.2165319720579608e+000
    4.3113850669521812e+000 -1.2123085979870698e+000
    4.2421475852176558e+000 -1.4883956893312629e+000
    4.0820474190724410e+000 -1.2104846393688589e+000
    3.9868317309923373e+000 -1.3093218981094925e+000
    4.7898601038632576e+000 -1.5830250204945944e+000
    4.6227434040523514e+000 -1.2329627871796773e+000
    4.0047024419825208e+000 -1.3558031428759763e+000
    4.9422181610805067e+000 -1.5291327195461812e+000
    4.9094777587663421e+000 -1.2171223343122690e+000
    3.8349819243858261e+000 -1.2830662190277600e+000
    4.8836745597332101e+000 -1.5217495981193134e+000
    4.8881216525466442e+000 -1.2353103098978935e+000
    3.7637755386659060e+000 -1.2753349708355488e+000
    5.0204775959231807e+000 -1.4985967028986598e+000
    4.9243098429805139e+000 -1.1921356559430840e+000
    3.7424333964317720e+000 -1.2409277521709585e+000
    5.2709544246536568e+000 -1.4295344255165905e+000
    5.0791140606068739e+000 -1.1686453370049537e+000
    3.8027849564342504e+000 -1.1104465363699705e+000
    5.4580563674821843e+000 -1.4530965382398828e+000
    5.1936663148437914e+000 -1.1608426121234217e+000
    4.1007469357521913e+000 -1.1663490245819017e+000
    5.1184819247369235e+000 -1.3160589828656679e+000
    5.0080140117867984e+000 -1.0859610441507033e+000
    3.9429758627585874e+000 -1.0913058915344087e+000
    5.5273871975369619e+000 -1.2921386929100152e+000
    5.1428740652970033e+000 -9.9285659112514568e-001
    4.4611985360144129e+000 -1.1533427746654841e+000
    6.1212681642723235e+000 -1.3333864354393070e+000
    5.3153917049207378e+000 -9.6730427184412815e-001
    5.2214218384495386e+000 -1.2264390385216137e+000
    5.6623153683819263e+000 -1.1732379820876013e+000
    5.3439249629163754e+000 -9.4143742421410070e-001
    5.3519707071600564e+000 -1.1364540022415626e+000
    6.0392254023285812e+000 -1.1497052911848820e+000
    5.9495672791080993e+000 -9.6422495734863922e-001
    5.9289167237640870e+000 -1.1278871289048087e+000
    6.2849558861823756e+000 -1.1088859066197583e+000
    6.4301366345780613e+000 -9.3072326760209811e-001
    5.8519826050872412e+000 -1.0698754829106694e+000
    6.6007063755617690e+000 -1.0930450624702259e+000
    6.4565551916079125e+000 -9.1926690206646267e-001
    6.0851378838843431e+000 -9.9628707928724725e-001
    8.4704174535934271e+000 -8.6208575056239833e-001
    6.4292658483150520e+000 -9.2548061249032776e-001 1. 0.
    8.6978602373786060e+000 -8.4272724108178376e-001
    6.2535732196273432e+000 -8.6040475777016090e-001 1. 0.
    7.0636710945487415e+000 -1.0718231036164814e+000
    6.1102573024893925e+000 -8.3634739702959837e-001
    7.2504781530881459e+000 -1.0263272850042928e+000
    6.5587289389877537e+000 -1.1005773264358081e+000
    5.9456375752716761e+000 -8.5610553972261283e-001
    6.1550961730634857e+000 -1.0515473788707590e+000
    6.4411340819195742e+000 -1.1789150441519300e+000
    5.9146254785494774e+000 -9.2890012629878427e-001
    5.2999368166377376e+000 -1.0033674986997854e+000
    6.1701856621910611e+000 -1.2620228795384774e+000
    5.6095548156221549e+000 -9.5758220717891251e-001
    4.9724731719703339e+000 -1.0698027170486333e+000
    5.4921200999158737e+000 -1.2777976430048181e+000
    5.1729049911072238e+000 -1.0040013425286216e+000
    4.9741782658782681e+000 -1.1950520778090641e+000
    4.9288591169784786e+000 -1.2063855720702432e+000
    4.8621522565097610e+000 -1.0313250261836928e+000
    4.4426727063710230e+000 -1.0810157138587124e+000
    4.7092885212447628e+000 -1.3168080614566484e+000
    4.6849972736392660e+000 -1.1063918991242048e+000
    4.2213372571323395e+000 -1.1998799758166219e+000
    4.6613424599309701e+000 -1.4070491268337468e+000
    4.5952285727065973e+000 -1.1758764907292731e+000
    3.9868206283203897e+000 -1.2142215866172281e+000
    4.5105175210840169e+000 -1.4803811638332063e+000
    4.4350438223235678e+000 -1.2243941225768382e+000
    3.7859002363508436e+000 -1.2559143767161212e+000
    4.1021432946208387e+000 -1.4713656897910137e+000
    4.1520713359001569e+000 -1.2478038274951073e+000
    3.4929154489010514e+000 -1.2651841214642441e+000
    4.1706056789014054e+000 -1.5974827470693118e+000
    4.0676229228730127e+000 -1.2989201093935752e+000
    3.5620973002213274e+000 -1.3480696777642072e+000
    4.0884423166846044e+000 -1.6159060347650633e+000
    3.8978155958518599e+000 -1.2998149037178175e+000
    3.7282452817432818e+000 -1.4141267076187323e+000
    3.7728423731985012e+000 -1.5305726992689190e+000
    3.6157679584547653e+000 -1.2784092308212347e+000
    3.7399712878685949e+000 -1.3499020038518244e+000
    3.7935404533868580e+000 -1.5514981981823714e+000
    3.5929248428236340e+000 -1.3457388143505651e+000
    4.0238189813876186e+000 -1.2867930825150349e+000
    3.7604721878752532e+000 -1.4885392952591459e+000
    3.4425845216809603e+000 -1.2886634842323128e+000
    4.2277852984125968e+000 -1.1603592275007759e+000
    3.8744102941742193e+000 -1.5265083756941789e+000
    3.5911516291382592e+000 -1.2846665599246110e+000
    4.0835277431095740e+000 -1.2166912768177522e+000
    4.1880313271917995e+000 -1.5951706473956699e+000
    4.0191958666344432e+000 -1.3259801658442183e+000
    4.1796614907908456e+000 -1.3722709816399279e+000
    4.4578797442516018e+000 -1.6471258535849818e+000
    4.1971545232782930e+000 -1.3063899803603478e+000
    4.0009305374051332e+000 -1.3995431754480723e+000
    4.4822410359230904e+000 -1.5753584493424804e+000
    4.2509177263125464e+000 -1.2836068099817275e+000
    3.6256964040484259e+000 -1.2275041961098543e+000
    4.8811382880290397e+000 -1.6923482088021875e+000
    4.7405643560358923e+000 -1.3881334057994781e+000
    3.8636862445527971e+000 -1.3396227199450268e+000
    4.8122035458342349e+000 -1.5725765235845048e+000
    4.9099968940224645e+000 -1.3337308439269844e+000
    3.7911760130563512e+000 -1.2754618553825097e+000
    4.9916895123574632e+000 -1.4638925821937012e+000
    4.9532430495617987e+000 -1.2364425955155869e+000
    3.9177087908306869e+000 -1.1612959462623333e+000
    5.3545280850677361e+000 -1.4334625663152500e+000
    5.1963429584975227e+000 -1.1715090963167460e+000
    4.3030525685686385e+000 -1.1788491554332943e+000
    5.4537669560883328e+000 -1.3450562132681516e+000
    5.4772822605633014e+000 -1.1106176167013135e+000
    4.2793038586987384e+000 -1.1325365386677264e+000
    5.7148937802210646e+000 -1.3018228748820742e+000
    5.5778260304082101e+000 -1.0305468081102327e+000
    4.6732374036858175e+000 -1.1622555012937816e+000
    5.4440423655586834e+000 -1.1819866552830864e+000
    5.2431638656915096e+000 -9.4321772331857534e-001
    4.9219780378928606e+000 -1.1265867477406901e+000
    5.1878347119454480e+000 -1.0739318342078823e+000
    5.1203705325617070e+000 -9.0984859779054261e-001
    5.1547857873573619e+000 -1.0850306088770014e+000
    5.5409100873878314e+000 -1.0844358177822193e+000
    5.4130864755366819e+000 -9.1094944276421430e-001
    5.8986602173466824e+000 -1.1345292444805506e+000
    5.6093255501807642e+000 -1.0338903465636458e+000
    5.5390366282712895e+000 -8.6595970572591596e-001
    5.6907120378448042e+000 -1.0410093521347474e+000
    6.3012277577504907e+000 -1.0573816593159751e+000
    6.0092336068169736e+000 -8.7482372956841870e-001
    6.7244612521903093e+000 -1.1035555367802605e+000
    7.7949214361831931e+000 -7.9824746791878154e-001
    6.2739559442996296e+000 -9.0613581066474103e-001 1. 0.
    9.4555845621397037e+000 -8.6910918344145782e-001
    6.6290931688276764e+000 -8.7717976820236299e-001 1. 0.
    7.7055209618766982e+000 -1.1126100423000804e+000
    6.8631535667073509e+000 -8.8489335406689229e-001
    7.5073725039753709e+000 -1.0381516438161214e+000
    7.2523797278088420e+000 -1.1411857820442999e+000
    6.7326813163461336e+000 -9.0005538989307909e-001
    6.7144884845093813e+000 -1.0860465375517361e+000
    6.7055643081176504e+000 -1.1775677376335532e+000
    6.1759664295385939e+000 -9.2423401271610450e-001
    6.1454017770387619e+000 -1.0948924395430597e+000
    6.2071404987827572e+000 -1.2066382615279128e+000
    5.7853632260567176e+000 -9.6326572726867243e-001
    5.3550353605064700e+000 -1.0332291347325144e+000
    5.9179930589213967e+000 -1.2729899104598283e+000
    5.5659455558897246e+000 -1.0206132571398712e+000
    5.2000366125528572e+000 -1.1093177028139329e+000
    5.4249462209872235e+000 -1.2774054481008461e+000
    5.1859397438418871e+000 -1.0762443568326785e+000
    4.7264139038659811e+000 -1.0757119092044263e+000
    5.0217873689736390e+000 -1.3003351848912623e+000
    4.8025786312196619e+000 -1.0804387850159114e+000
    4.5193492749630106e+000 -1.1374384286174795e+000
    4.6716445306394307e+000 -1.3601906617267563e+000
    4.4814662944272179e+000 -1.1410310624279285e+000
    4.1973926125530401e+000 -1.1637915640476357e+000
    4.4726596666046721e+000 -1.5095101573995939e+000
    4.2311195116508564e+000 -1.2498906107012948e+000
    4.0587670664209634e+000 -1.2768124054931522e+000
    4.0510115179196040e+000 -1.5686797127861847e+000
    3.8078281716865550e+000 -1.2902725048640824e+000
    3.7276184348228059e+000 -1.3202283700554149e+000
    3.8055924131836156e+000 -1.6051325045799620e+000
    3.5403591948449851e+000 -1.3012517834929098e+000
    3.5434577543755559e+000 -1.3627482308595162e+000
    3.5566673487875113e+000 -1.5363328375847738e+000
    3.3858847586469887e+000 -1.2854917323533861e+000
    3.4680632769768334e+000 -1.3313577481010264e+000
    3.4129326539375722e+000 -1.4614872145713316e+000
    3.2589726641219556e+000 -1.2429845697757456e+000
    3.6868249021858173e+000 -1.3240271060592848e+000
    3.4158274404250708e+000 -1.4553758549616791e+000
    3.2462205026286250e+000 -1.2697412001762978e+000
    4.0832390001066026e+000 -1.3175957844343826e+000
    3.4596534430622525e+000 -1.4590261221465435e+000
    3.1801469363418313e+000 -1.2715102601056372e+000
    4.3195897497896460e+000 -1.2440977065134913e+000
    3.4653530776990076e+000 -1.4688646529511642e+000
    3.2392357141954200e+000 -1.2677423576011624e+000
    4.0444992648222620e+000 -1.2329927740498094e+000
    3.6372603153013583e+000 -1.5287495703625102e+000
    3.3892588558790036e+000 -1.2862785103003080e+000
    4.1268004619661278e+000 -1.3819570425121237e+000
    3.6837973611924197e+000 -1.4869672988886895e+000
    3.4284237347468220e+000 -1.2324285475642298e+000
    3.8519324969649080e+000 -1.3221123308741358e+000
    4.0168865567621852e+000 -1.5136137002288279e+000
    3.7588626042576361e+000 -1.2541530707040907e+000
    3.9098597355716276e+000 -1.3253555829646628e+000
    4.2160403687682306e+000 -1.5190808134597042e+000
    4.1231364370443107e+000 -1.2774775896620119e+000
    3.8560156222324871e+000 -1.3160498666831482e+000
    4.5139738676163867e+000 -1.5203727061071215e+000
    4.4736305229140170e+000 -1.2698811543709481e+000
    3.9216390299086976e+000 -1.2831878819349471e+000
    5.0085660871945654e+000 -1.5115371696622193e+000
    4.9851757701518720e+000 -1.3002826431370986e+000
    4.2526109889128652e+000 -1.2052556973507771e+000
    5.3620488216730768e+000 -1.4249145823199127e+000
    5.3626587555766916e+000 -1.2388663252534382e+000
    4.4499133406431621e+000 -1.1063044655989986e+000
    5.2536505645528848e+000 -1.3292155086552908e+000
    5.2062829749124706e+000 -1.1378947485632949e+000
    4.5020873924854365e+000 -1.0957775548512159e+000
    5.0969564355498704e+000 -1.2007103925707956e+000
    4.9241033892689110e+000 -9.9212027299315075e-001
    4.6701596162343355e+000 -1.0909272844097950e+000
    5.6859396711681640e+000 -1.2150534650635765e+000
    5.1967944859263593e+000 -9.5304009239931009e-001
    5.0724517993282614e+000 -1.0761931290787641e+000
    5.9750088447658767e+000 -1.1847457859924719e+000
    5.8047166975508109e+000 -9.7002896488230050e-001
    5.3347674731457433e+000 -1.0785871109908112e+000
    6.0663611274083031e+000 -1.1416259049436475e+000
    6.0761979518195455e+000 -9.5037673219197361e-001
    5.7331860362150042e+000 -1.0909144048762958e+000
    6.7889791861599278e+000 -1.1283450471909962e+000
    6.9662845769961637e+000 -9.5336817252740635e-001
    6.1996175962685811e+000 -1.0708843713111738e+000
    7.6669504315234080e+000 -1.1257134092135230e+000
    7.7254640841990581e+000 -9.4334632821826281e-001
    7.0190066284597510e+000 -1.0794438720926491e+000
    9.6770955675210413e+000 -8.3625585452743878e-001
    7.6441871969371666e+000 -9.2518439214537374e-001 1. 0.
    9.4820793654948190e+000 -9.2530892940377041e-001
    6.3611070213815557e+000 -9.1070527889381880e-001 1. 0.
    7.6396636118201107e+000 -1.1261958173016562e+000
    6.7298252339493407e+000 -9.2462334926150103e-001
    7.8724942244558394e+000 -1.0305852075816508e+000
    7.2259451086376609e+000 -1.1319402453789469e+000
    6.7094064906957236e+000 -9.1549766471521521e-001
    7.0798531521752768e+000 -1.0680599770186592e+000
    6.7855204852108537e+000 -1.1627126673799195e+000
    6.2942550638404029e+000 -9.1661397856328652e-001
    6.6816491528134865e+000 -1.1171392336939436e+000
    6.3848057056713055e+000 -1.1839755855870742e+000
    6.1186334650329810e+000 -9.6368678665297003e-001
    5.8425905368106887e+000 -1.0321036761966715e+000
    6.0677243817693816e+000 -1.2614026400812866e+000
    5.9164195101362358e+000 -1.0611487407566889e+000
    5.3613301129009576e+000 -1.0519533724428385e+000
    5.8964644165669462e+000 -1.3722064569939285e+000
    5.5551062563848808e+000 -1.1332080804044171e+000
    4.8595656262918050e+000 -1.0530533529758714e+000
    5.5564966060056644e+000 -1.4264055573680818e+000
    5.1317498154086838e+000 -1.1849736865705420e+000
    4.7411211961831201e+000 -1.0985270781209453e+000
    4.8472173916013244e+000 -1.4332597083064766e+000
    4.6891233380771977e+000 -1.2465003117222868e+000
    4.5024427243872811e+000 -1.1659307740926497e+000
    4.5534148586742873e+000 -1.5434815483035136e+000
    4.3200854128162192e+000 -1.3125989096047277e+000
    4.1457847965089600e+000 -1.2103388874199921e+000
    4.2734554110910894e+000 -1.5837575733669274e+000
    4.0301773597564940e+000 -1.3477042036542348e+000
    3.8212475137366644e+000 -1.1928137322451000e+000
    4.0320592809294915e+000 -1.6995291837762119e+000
    3.7570627528120832e+000 -1.4241908131012686e+000
    3.6496258445782801e+000 -1.2654892286911072e+000
    3.7145720782546352e+000 -1.6782882029370962e+000
    3.4887387743310674e+000 -1.4290693965266545e+000
    3.6127840096789043e+000 -1.3125917983932511e+000
    3.5892495350680935e+000 -1.5958529167654749e+000
    3.2488893237869969e+000 -1.3357118884514405e+000
    3.9438937251751507e+000 -1.3299760368144566e+000
    3.3983112173883661e+000 -1.4313326528120167e+000
    3.0844115555053873e+000 -1.2376549775969663e+000
    4.3122525235944291e+000 -1.2245589509185413e+000
    3.4376281293890210e+000 -1.4589697397169137e+000
    3.0901490551075845e+000 -1.2583787785930278e+000
    4.4882816575015703e+000 -1.2361677368957311e+000
    3.4265629855328652e+000 -1.5349554236165655e+000
    3.1326316156450309e+000 -1.3322756215706426e+000
    4.4159461570922431e+000 -1.3594550636251184e+000
    3.4825629999007277e+000 -1.5733359643405442e+000
    3.2363365670329194e+000 -1.3401937921099598e+000
    4.0728872368058360e+000 -1.3882782010824453e+000
    3.8605913042697795e+000 -1.6674112206388978e+000
    3.5106438052769424e+000 -1.3977540263834667e+000
    3.9641656295801617e+000 -1.3096618786957868e+000
    4.0867809610903798e+000 -1.6295557554188060e+000
    3.7029107118969935e+000 -1.3537223157206963e+000
    4.0967888511077719e+000 -1.2897677842212967e+000
    4.2568251335842451e+000 -1.6038380293494290e+000
    4.0242072636866979e+000 -1.3551035169290078e+000
    3.9902012459661229e+000 -1.2387245672863179e+000
    4.4549701772782724e+000 -1.5697249688654313e+000
    4.4197681511402065e+000 -1.3860534950630383e+000
    4.0948049430987892e+000 -1.2249428713977193e+000
    4.9449460314334335e+000 -1.4920296390702856e+000
    4.7907455533589252e+000 -1.2887454982447302e+000
    4.6064512716194237e+000 -1.1856780691473607e+000
    5.0261779823882247e+000 -1.3193224091530267e+000
    5.0529414900144864e+000 -1.1716098557159573e+000
    4.6794062486321417e+000 -1.0843819160186852e+000
    5.3717706702723085e+000 -1.3049693777765725e+000
    5.4709548389576677e+000 -1.1696248251305668e+000
    4.9104249311282331e+000 -1.0600413713894212e+000
    5.7470688364032858e+000 -1.3122678904336023e+000
    5.8040372267213058e+000 -1.1658599421424976e+000
    5.4093661196339538e+000 -1.1075386900374085e+000
    6.1228924982536128e+000 -1.2608432653359680e+000
    6.6128369445022246e+000 -1.1803799847799239e+000
    5.3135685577259268e+000 -1.0225273632272265e+000
    6.4163872081591915e+000 -1.2192598878646568e+000
    6.7169931336422328e+000 -1.0828506003131071e+000
    5.4727867977951359e+000 -1.0224917582736368e+000
    7.0172492002576048e+000 -1.2422225141560688e+000
    7.2347325360513439e+000 -1.0692997552573942e+000
    5.8585126869610429e+000 -1.0348320345488515e+000
    7.4104530713314771e+000 -1.1760791639796488e+000
    7.7931930413977408e+000 -1.0384170597223819e+000
    6.1245618592430233e+000 -9.7607235219853961e-001
    7.8336393334616279e+000 -1.1671469555444136e+000
    7.6361738686007667e+000 -9.7018141228895538e-001
    6.6588806912572220e+000 -9.9080949492621939e-001
    9.4589612452886325e+000 -8.7309786403855583e-001
    7.1304526322096953e+000 -9.2842878164542109e-001 1. 0.
    8.1491747327219741e+000 -8.5462396522718953e-001
    5.8884885473152764e+000 -8.8198030128679616e-001 1. 0.
    6.7540251152872868e+000 -1.0427787128491495e+000
    6.1835443656713478e+000 -8.9916701505835683e-001
    7.6335015925549872e+000 -9.9184481963627225e-001
    6.6448485439596912e+000 -1.1165531382014398e+000
    6.4420867374124846e+000 -9.4417180746004914e-001
    6.5553475274004969e+000 -1.0168096979600665e+000
    6.3535749460875435e+000 -1.1334908275197182e+000
    6.0945196172034324e+000 -9.5169819282938040e-001
    6.5602841784346673e+000 -1.0656416752163411e+000
    5.7602312609192543e+000 -1.1502554038864230e+000
    5.6301534749488669e+000 -9.8318758465079381e-001
    5.7756884011799627e+000 -1.0402565080398960e+000
    5.7400755304370321e+000 -1.2386842401767229e+000
    5.5036809896233985e+000 -1.0343541367498890e+000
    5.2808715341196155e+000 -1.0394779545597446e+000
    5.8065799267272027e+000 -1.3252857764930124e+000
    5.3798275090757608e+000 -1.0806561858885038e+000
    4.9810591712830981e+000 -1.0314760172620256e+000
    5.3935856047102080e+000 -1.3842878062315167e+000
    4.9291026430153568e+000 -1.1310465278252388e+000
    4.7258091136217999e+000 -1.0721367858053807e+000
    4.8775611218802961e+000 -1.4294222743990286e+000
    4.5836540941506163e+000 -1.2181370607718616e+000
    4.5650265821215559e+000 -1.1358469036007355e+000
    4.5596107782257107e+000 -1.5358962890113137e+000
    4.2997586335296507e+000 -1.3080847071489616e+000
    4.3843089654272660e+000 -1.2424577588506962e+000
    4.1073472677240286e+000 -1.5476933647416287e+000
    3.9115111562740190e+000 -1.3489021254206972e+000
    4.0512938032174866e+000 -1.2620279444900206e+000
    3.9049886740603608e+000 -1.5985381524324103e+000
    3.6123994501026955e+000 -1.3706133297343019e+000
    3.9972769794106568e+000 -1.2629040522774668e+000
    3.7750633618751417e+000 -1.6352138203243187e+000
    3.5030214829354591e+000 -1.3938479755668980e+000
    3.7943658919710104e+000 -1.2520340730839070e+000
    3.5588170143410882e+000 -1.4777768710110604e+000
    3.2825224152310444e+000 -1.2693910658207799e+000
    3.9888179311523797e+000 -1.2133164791169457e+000
    3.5361647417971245e+000 -1.3994183635952306e+000
    3.2279212476214747e+000 -1.2252909505803817e+000
    4.2868163946427824e+000 -1.1389371366849736e+000
    3.6266558613075488e+000 -1.4315387515915978e+000
    3.2393009930364642e+000 -1.2382625432535375e+000
    4.6527270485082077e+000 -1.2264276666836560e+000
    3.5675458571220786e+000 -1.4892743023350847e+000
    3.2799287229424148e+000 -1.3083363147588567e+000
    4.3070560335649448e+000 -1.2459242182885146e+000
    3.6701805466471082e+000 -1.6677884994187120e+000
    3.3705059814018794e+000 -1.4081616757436515e+000
    4.0442375756236846e+000 -1.3860410813936048e+000
    3.8326425606248944e+000 -1.6500435138071334e+000
    3.4824548656850296e+000 -1.4031257431356752e+000
    4.0989384538587439e+000 -1.2928017745442399e+000
    4.2608842120443589e+000 -1.6767762072516150e+000
    3.7577439053528732e+000 -1.3780299348354894e+000
    4.4129283023335955e+000 -1.2847948352378322e+000
    4.4350349236405835e+000 -1.6091074533284824e+000
    4.0606412236292506e+000 -1.3298376280544095e+000
    4.4364944307810346e+000 -1.2741430994052001e+000
    4.6104971477352095e+000 -1.5134278112821991e+000
    4.2561686695188623e+000 -1.2428174765922175e+000
    4.4613199809490425e+000 -1.2124365067890197e+000
    4.6877704928426311e+000 -1.3699338654086570e+000
    4.4294887216694665e+000 -1.1389211712029133e+000
    4.6626453876252052e+000 -1.1653119126331881e+000
    4.7396554402677369e+000 -1.2374366129214607e+000
    4.8184503085353141e+000 -1.0691977439623250e+000
    4.4822368948310389e+000 -1.0536594148353848e+000
    5.5101258898247076e+000 -1.3108412488078631e+000
    5.5047424042104316e+000 -1.1136977667933119e+000
    5.3829229236174880e+000 -1.1675451964146457e+000
    5.7071410824402387e+000 -1.2278329278187468e+000
    5.8915811061945424e+000 -1.1130991752422557e+000
    5.7370909575076166e+000 -1.0584435346268017e+000
    5.4196623057588145e+000 -1.1253390616204337e+000
    5.7138846789043507e+000 -1.0268422431477524e+000
    5.3960990032600087e+000 -1.0053919660635102e+000
    6.4323364397969147e+000 -1.2050808862224485e+000
    6.0474144963939427e+000 -9.9527374431657545e-001
    6.5680980712263954e+000 -1.1044014488035208e+000
    6.1824090962897289e+000 -1.1006387625023915e+000
    6.1975876303944739e+000 -9.4647595217566494e-001
    6.2288302091540366e+000 -1.0509866385778974e+000
    6.2354543716887205e+000 -1.0530755039849682e+000
    6.1880574079348314e+000 -8.8255169477527629e-001
    6.3455244372734780e+000 -1.0511225807682452e+000
    7.0379122193665484e+000 -1.0778352450505595e+000
    6.5142739633665956e+000 -8.7247405537408118e-001
    6.9003310882113169e+000 -1.0222279118399082e+000
    8.9698116666147722e+000 -8.2806718197457296e-001
    6.5940479295006291e+000 -8.6922201440647429e-001 1. 0.
    8.6264033100734085e+000 -8.8823433661201834e-001
    6.1801453646140443e+000 -9.1814988857760094e-001 1. 0.
    6.8676577370614806e+000 -1.0763583868079951e+000
    6.2887221126127759e+000 -9.2338680202620771e-001
    7.6276526819357091e+000 -1.0168255646838167e+000
    6.2118918205872893e+000 -1.1069982734200865e+000
    6.1052734316830390e+000 -9.5744762468753475e-001
    6.0939308605584763e+000 -1.0112408703252347e+000
    6.1595883588901525e+000 -1.1688159875451152e+000
    5.7934067690571203e+000 -9.7328366780289188e-001
    6.1046185148789283e+000 -1.0871142249752801e+000
    6.0605817176287946e+000 -1.2345192940304970e+000
    5.6605191482394304e+000 -1.0182383955607992e+000
    5.8483995076192512e+000 -1.1091892084700732e+000
    5.7256730258050528e+000 -1.2733140779391625e+000
    5.4215925610293372e+000 -1.0303259337363697e+000
    5.2001293571735507e+000 -1.1406658928713969e+000
    5.5272367759750560e+000 -1.2847370697595664e+000
    5.2666971905813984e+000 -1.0627495290925988e+000
    4.8671037471591552e+000 -1.0972457505138775e+000
    5.3058664410003979e+000 -1.3451454538119569e+000
    5.0415205076987419e+000 -1.1193460159806536e+000
    4.8823731400217962e+000 -1.1703726971066442e+000
    4.8531328407028811e+000 -1.3925500752370894e+000
    4.6987613621009414e+000 -1.1606437612197473e+000
    4.5489144017061038e+000 -1.2451184754323752e+000
    4.5596162007233394e+000 -1.4014105492866704e+000
    4.4724968447611282e+000 -1.1783183081763691e+000
    4.2162134261525006e+000 -1.2242807429021310e+000
    4.4704075896272970e+000 -1.5194075836128773e+000
    4.2920293418991511e+000 -1.2822548146988444e+000
    4.1750275713133167e+000 -1.2884438654166863e+000
    4.2511169908968496e+000 -1.4944502380424693e+000
    4.1277723079451984e+000 -1.2707858788361461e+000
    4.1220398546586328e+000 -1.2471511890570366e+000
    3.9481979324502379e+000 -1.4261302760497812e+000
    3.9034440555813723e+000 -1.2172372426629601e+000
    3.9340260185725495e+000 -1.2171906187459185e+000
    4.0138709164823725e+000 -1.4523635757554070e+000
    3.7808875420768295e+000 -1.2352346146778623e+000
    4.0811627195894760e+000 -1.1903960697525739e+000
    4.1734318650119357e+000 -1.5078818691726164e+000
    3.7663159140727931e+000 -1.2706875900188377e+000
    4.5714062508822657e+000 -1.2582798216055600e+000
    4.0823328438857791e+000 -1.4264824761210522e+000
    3.7271716935238075e+000 -1.2308972527292961e+000
    4.6566975123869785e+000 -1.2174117599144882e+000
    3.9606438905828099e+000 -1.4259846639854068e+000
    3.7515292113283705e+000 -1.2414713940051028e+000
    4.3340053153076852e+000 -1.2231437391727096e+000
    4.1168994051607051e+000 -1.5756928382595026e+000
    3.9488313677583338e+000 -1.3175012381076281e+000
    4.0650303661296965e+000 -1.3161103108756644e+000
    4.2174589418395652e+000 -1.5500972234573562e+000
    4.1178791266927792e+000 -1.3367438392413633e+000
    4.2214261108102153e+000 -1.2818350580740465e+000
    4.6137123272594343e+000 -1.6302991135548446e+000
    4.2701743753744399e+000 -1.3523337730464653e+000
    4.6515415526913033e+000 -1.3729702315525734e+000
    4.7946959570557786e+000 -1.5959591888171525e+000
    4.4321600540503105e+000 -1.2913922958916222e+000
    4.5516923440188872e+000 -1.3314286371362660e+000
    4.8111546797430291e+000 -1.4456165197383810e+000
    4.6946236747610710e+000 -1.2243645992567196e+000
    4.4174271692101961e+000 -1.1938698561776651e+000
    4.9603884376294296e+000 -1.4169593794282935e+000
    4.9408387491811911e+000 -1.1992811158694454e+000
    4.3874062784213681e+000 -1.1836558951294105e+000
    5.3931324704622758e+000 -1.4042239159789325e+000
    5.5064072187093309e+000 -1.2056663930728968e+000
    4.5736894531257377e+000 -1.1541334622836634e+000
    5.6277571268044797e+000 -1.3511228501613228e+000
    5.6435240320067184e+000 -1.1316574143449307e+000
    4.9070675786058251e+000 -1.1491238957593426e+000
    5.4921912723948347e+000 -1.2080810804323985e+000
    5.6175207422061071e+000 -1.0894950205966547e+000
    5.2130150228400307e+000 -1.0491004906596615e+000
    6.0739199176101684e+000 -1.2458606505191030e+000
    5.9255228833141871e+000 -1.0406478250185538e+000
    5.8203803972310721e+000 -1.1457204600790147e+000
    6.6553198757212488e+000 -1.1971884172514771e+000
    6.2088193693587295e+000 -9.7806624261738451e-001
    6.2903676270066597e+000 -1.0448542516635699e+000
    6.5109448838157258e+000 -1.1486086934585511e+000
    6.2743427125668498e+000 -9.5502557393264609e-001
    6.2102565008048130e+000 -1.0437158962475355e+000
    6.8390013168202755e+000 -1.1473135343102114e+000
    6.5093948139772202e+000 -9.4959917272641781e-001
    6.6471094765766541e+000 -1.0599475458474279e+000
    7.3001320062788215e+000 -1.1156334380851125e+000
    6.5036924205997826e+000 -8.8327671234035077e-001
    7.4288516597451055e+000 -1.0612733343381524e+000
    8.7878081195546489e+000 -8.3773841424731488e-001
    6.3592576835331327e+000 -8.5996301577075696e-001 1. 0.
    8.0171622051748344e+000 -8.8478367562317228e-001
    5.9809719113738238e+000 -9.4119612148838927e-001 1. 0.
    6.8186006262684851e+000 -1.1382631556816798e+000
    6.2922887358544717e+000 -9.5920601000683636e-001
    7.5547572572153561e+000 -1.1058698331863355e+000
    6.5941994145925751e+000 -1.1365067302586944e+000
    6.2570956244713933e+000 -9.1363935525411621e-001
    6.4388377822414782e+000 -1.1120806829997172e+000
    6.2366604662044649e+000 -1.0977555968839887e+000
    5.8696418609067793e+000 -8.6745968611794777e-001
    5.6785662500644074e+000 -1.0474059620914460e+000
    6.0636769446297478e+000 -1.1599678194310510e+000
    5.7607079298977446e+000 -9.3944453311613207e-001
    5.4095483195670138e+000 -1.0614652842842798e+000
    5.5199654501959801e+000 -1.1963244901105659e+000
    5.2792194751424919e+000 -9.7386134600382512e-001
    4.9545237801842132e+000 -1.0991834367176161e+000
    5.4703910751074343e+000 -1.2822709000613979e+000
    5.1046417994379292e+000 -1.0307638024190517e+000
    4.7542858872719682e+000 -1.1274638105631012e+000
    5.3286476489221357e+000 -1.3440997814946467e+000
    5.0043163662541632e+000 -1.0794582211257135e+000
    4.6364568538153295e+000 -1.1941128405346646e+000
    4.8421708022492878e+000 -1.3446658214607170e+000
    4.7665833689979182e+000 -1.1098626231462396e+000
    4.4661745491446156e+000 -1.2580949812535187e+000
    4.8239571414674520e+000 -1.4109899841491045e+000
    4.5250055993687246e+000 -1.1097264482227529e+000
    4.3009140717067051e+000 -1.2530570625972028e+000
    4.8315203979209045e+000 -1.4066929989034911e+000
    4.4793448621626180e+000 -1.1347665507959248e+000
    4.6110041530532309e+000 -1.2620907947096434e+000
    4.3243531759697857e+000 -1.3600370833957691e+000
    4.1256873390290272e+000 -1.1372440124367649e+000
    4.1917703760686615e+000 -1.1694298887718546e+000
    4.0856354889512794e+000 -1.3503156113277071e+000
    3.9817187470478581e+000 -1.1558851634621221e+000
    4.2287383916704027e+000 -1.2390708410269724e+000
    3.9681797844661353e+000 -1.3522780732812250e+000
    3.9024349954024049e+000 -1.1982555839372282e+000
    4.1892495192408541e+000 -1.2215767110112932e+000
    3.9849140076605480e+000 -1.2822669649382772e+000
    3.7241739177740452e+000 -1.1140635423008600e+000
    4.5499526416539995e+000 -1.1870921778375849e+000
    4.0886259544757797e+000 -1.2813796412863880e+000
    3.6673246399143991e+000 -1.0784667981089791e+000
    4.6751950414974708e+000 -1.1880132599779074e+000
    4.1552934370226380e+000 -1.3001091768274848e+000
    3.7432779407388144e+000 -1.0706046927580437e+000
    4.8066635316281134e+000 -1.2697688233217557e+000
    4.0340242494566763e+000 -1.2813169733800014e+000
    3.8469701691319091e+000 -1.0495363510391358e+000
    4.2801680628798211e+000 -1.2412767190596032e+000
    4.3573542643391781e+000 -1.3725664942971363e+000
    4.1156307664697245e+000 -1.1041026767576310e+000
    4.4567676497013329e+000 -1.3083689616190244e+000
    4.4539940339328048e+000 -1.3643699409650245e+000
    4.0568602470036987e+000 -1.0598627624825017e+000
    4.4266996180869036e+000 -1.2736682122778940e+000
    4.4034739913976537e+000 -1.3338937866387421e+000
    4.2279387304534044e+000 -1.0782176796326017e+000
    4.3670839388430593e+000 -1.2743806525031016e+000
    4.6568649272535589e+000 -1.3102158862445916e+000
    4.5603102147725982e+000 -1.0726323803183808e+000
    4.5057639977693595e+000 -1.2515304012539983e+000
    5.1988765273407989e+000 -1.3711785983368943e+000
    5.1026144846556356e+000 -1.1103641264719903e+000
    4.5010997316111467e+000 -1.2142979386144301e+000
    5.4938249686728149e+000 -1.3348434812917265e+000
    5.2216361178117587e+000 -1.0588446619015999e+000
    4.5084379043365042e+000 -1.1342049791707973e+000
    5.3373861954044619e+000 -1.2595436263940816e+000
    5.3175091369545964e+000 -1.0427353642467898e+000
    4.6198746585226971e+000 -1.1148415359109134e+000
    5.6195737625061231e+000 -1.2408672764441337e+000
    5.5947910989106084e+000 -1.0390103862523288e+000
    4.9364506922036941e+000 -1.0992090374166925e+000
    6.1355022722682140e+000 -1.2403434834402176e+000
    5.9589372337879887e+000 -1.0045722839812345e+000
    5.5634462187182985e+000 -1.1431408747471807e+000
    6.4913535366672184e+000 -1.1904982914625315e+000
    6.3865047137115019e+000 -1.0011960385434446e+000
    5.5645113132379942e+000 -1.0095427364155574e+000
    7.1868065116929829e+000 -1.2076406215854270e+000
    7.2375923671762061e+000 -1.0075152617363476e+000
    5.9402108402846325e+000 -1.0209216238676690e+000
    7.7295066336995077e+000 -1.1752969506872670e+000
    7.8238082052174169e+000 -9.9152650928590558e-001
    6.7226548779553479e+000 -1.0226077126867013e+000
    8.3756416306838855e+000 -1.2187802138328629e+000
    7.8441501347555453e+000 -9.6468353609503188e-001
    7.9259889911838677e+000 -1.1705074227488010e+000
    1.0642083638070089e+001 -9.2155359497416489e-001
    7.5806967665063549e+000 -9.3832057240941236e-001 1. 0.
    8.3413919110557586e+000 -8.3163487661790014e-001
    6.0257040552071590e+000 -8.6579028136718472e-001 1. 0.
    6.8207219115304207e+000 -1.0940563068360161e+000
    6.2851670941768329e+000 -8.8206103682662029e-001
    7.1317222181652884e+000 -1.0946865935905135e+000
    6.8371181394048763e+000 -1.1653888228855522e+000
    6.2047958077584848e+000 -8.9347320800786767e-001
    6.4823936755525509e+000 -1.1377737282729894e+000
    5.9391674222817032e+000 -1.0716779142666581e+000
    5.6907064032207639e+000 -8.8026755078847718e-001
    5.4396205714737924e+000 -1.0103560268202367e+000
    5.4163064011160253e+000 -1.1021603606157848e+000
    5.1875367682432874e+000 -9.1881178147841502e-001
    5.0566656592273524e+000 -1.0368883899502050e+000
    5.4232710866439966e+000 -1.1783710690983551e+000
    5.0949093102098493e+000 -9.4510844052112675e-001
    5.0242905749314435e+000 -1.0969270949946839e+000
    5.1607476010253661e+000 -1.2442493907098993e+000
    4.9955855153929392e+000 -1.0155452381367183e+000
    4.7797460282219522e+000 -1.1813242517003808e+000
    4.6422960781849598e+000 -1.2323440932071554e+000
    4.5723597483780720e+000 -1.0232752133607563e+000
    4.2501748126389165e+000 -1.1541593200643117e+000
    4.7308703343524172e+000 -1.2862967499474174e+000
    4.4127625032704589e+000 -1.0285258435139255e+000
    4.6338274256882519e+000 -1.2548133956083387e+000
    4.6686498834352967e+000 -1.3344381371877780e+000
    4.2385358914220905e+000 -1.0502219384721072e+000
    4.6365188929533590e+000 -1.2735039624400672e+000
    4.6542075540286918e+000 -1.3077292014143669e+000
    4.2078044552582758e+000 -1.0719092703219995e+000
    4.8717288792079128e+000 -1.2123700724831248e+000
    4.4957339140905566e+000 -1.3095264603654164e+000
    4.1965472697939949e+000 -1.0848454549072803e+000
    4.6834598396343754e+000 -1.2086860969002751e+000
    4.2737733027085900e+000 -1.3337918303780818e+000
    4.0555959698906170e+000 -1.1149153804533891e+000
    4.5873732595396195e+000 -1.2701457249964807e+000
    3.9211646372836322e+000 -1.2360274109113334e+000
    3.9002366788568827e+000 -1.0987440895573679e+000
    4.4593315994691105e+000 -1.2177501783305471e+000
    4.1600532024291921e+000 -1.2723135361954114e+000
    3.8822372381657302e+000 -1.1078396873331680e+000
    4.8814382799829836e+000 -1.1854724225844058e+000
    4.3651335654844843e+000 -1.2997089409378058e+000
    3.8286684897178178e+000 -1.0861406995408107e+000
    4.8637016963338997e+000 -1.1341023617626107e+000
    4.4319694899987994e+000 -1.2843299106373105e+000
    3.8734428996901729e+000 -1.0475250983553568e+000
    5.2105161954319383e+000 -1.2240853415403965e+000
    4.4514901925462640e+000 -1.3069708788802603e+000
    4.1342751157462976e+000 -1.0867835148077425e+000
    4.6744015052133090e+000 -1.1800279059299876e+000
    4.3137695007927288e+000 -1.2705454978715400e+000
    4.1106484479299521e+000 -1.0453998951869976e+000
    4.4898385848156623e+000 -1.2128671820230035e+000
    4.4290416439915523e+000 -1.3056503477116552e+000
    4.3125985778282274e+000 -1.0882217561417482e+000
    4.4913406315976250e+000 -1.2408094516681194e+000
    4.5834939678917257e+000 -1.3245214667292089e+000
    4.5110977749885164e+000 -1.1082589090288024e+000
    4.5328535661155707e+000 -1.2603479647687552e+000
    4.7274868935740777e+000 -1.2917029404311824e+000
    4.7017599810765844e+000 -1.0722183237620413e+000
    4.4976951700374919e+000 -1.2236072546287708e+000
    4.9531518941340584e+000 -1.2420611689441328e+000
    4.7674005277456368e+000 -9.7272455419138182e-001
    4.6010346035163368e+000 -1.1992843700054543e+000
    5.2174414445644643e+000 -1.2105609325669136e+000
    4.9523875091435050e+000 -9.3591725475936460e-001
    4.7798915561435757e+000 -1.1905543966885779e+000
    5.3879011872393496e+000 -1.1931344784937794e+000
    5.3088774025937955e+000 -9.4520556736660932e-001
    4.7476140413924472e+000 -1.1358816275187933e+000
    5.8011227647514891e+000 -1.1986518885927797e+000
    5.7378554416862535e+000 -9.4635416688270479e-001
    5.0402141907319322e+000 -1.1389147224277183e+000
    6.1293738928883998e+000 -1.1952526410179920e+000
    6.1078016229611221e+000 -9.5424114023724793e-001
    5.3970786630520644e+000 -1.1520020878022605e+000
    6.2510371339579702e+000 -1.1619807329039771e+000
    6.0612422101515113e+000 -9.2591394983611941e-001
    5.3234215496235953e+000 -1.0488177449221008e+000
    6.3692354360379300e+000 -1.0935244260797425e+000
    6.0897794158729202e+000 -8.5281265771143466e-001
    6.0144664067477898e+000 -1.1157586201023304e+000
    6.8386345412467193e+000 -1.0278526994864994e+000
    6.6248064317974036e+000 -8.2526665870913685e-001
    6.4636502310263886e+000 -1.0495685138933342e+000
    7.6149808245332586e+000 -1.0961688110732626e+000
    7.1857333607292215e+000 -8.5854202659046086e-001
    7.3781139613798725e+000 -1.1290542973469415e+000
    9.8497648978865548e+000 -8.3722708905743670e-001
    6.9481446531883888e+000 -8.5061652102524665e-001 1. 0.
    8.9344724906456978e+000 -8.5680600587134292e-001
    6.6263725160653655e+000 -9.1308297820333884e-001 1. 0.
    7.4887806818832789e+000 -1.1789807858155663e+000
    6.7331591220105347e+000 -9.1325871578090301e-001
    7.0544483338821147e+000 -1.1132814959057193e+000
    6.9881059744527230e+000 -1.1653082342742271e+000
    6.3586137077833094e+000 -9.0720953549077032e-001
    6.2584483279854455e+000 -1.0935910004379823e+000
    6.2996223565813807e+000 -1.1058639800630716e+000
    5.8342021273708662e+000 -8.6826230269300553e-001
    5.7143235837267055e+000 -1.0543149481156004e+000
    6.3000290493149862e+000 -1.1700832177626168e+000
    5.7736371739721273e+000 -9.0951493099226521e-001
    5.6204969253273482e+000 -1.0879943477935201e+000
    5.5548205506525514e+000 -1.1777773379108210e+000
    5.3597213673556894e+000 -9.4508754600295930e-001
    5.0277165052176924e+000 -1.1003884542581024e+000
    4.7872941627164378e+000 -1.1745527585932065e+000
    4.9021006551870654e+000 -9.8547666496256281e-001
    4.5665936629507211e+000 -1.1639657053562720e+000
    4.6820792287369422e+000 -1.2312951755991293e+000
    4.6459050376379478e+000 -1.0257061458696022e+000
    4.3449983160847880e+000 -1.1652686989321099e+000
    4.8558662503164012e+000 -1.2428719430603294e+000
    4.5745941513264592e+000 -1.0197317311508276e+000
    4.7873536196963462e+000 -1.1983670249706397e+000
    5.0682223152097041e+000 -1.3094049508244086e+000
    4.7807666695949971e+000 -1.0650946217310595e+000
    5.0694505987414589e+000 -1.2436977428590195e+000
    4.9354769351930301e+000 -1.2861422588580345e+000
    4.6718426580789485e+000 -1.0850546301416413e+000
    5.0383406351589830e+000 -1.1838768109093623e+000
    4.5698242449290642e+000 -1.2520453014283324e+000
    4.4201526777917941e+000 -1.0564438214239114e+000
    4.8803137890314350e+000 -1.2049032168876144e+000
    4.5151975241559885e+000 -1.2587050519733884e+000
    4.5069544405687516e+000 -1.1051672297238799e+000
    4.8202761545509656e+000 -1.1960078030148360e+000
    4.5214712104385830e+000 -1.2637164923413378e+000
    4.2765460393185384e+000 -1.0735184020935475e+000
    4.9755569498454344e+000 -1.1885688032538371e+000
    4.3901952462202765e+000 -1.2225949559538518e+000
    4.1354825837525837e+000 -1.0652038385085654e+000
    4.9359903524397764e+000 -1.0897397996808009e+000
    4.4351432094004108e+000 -1.2266347237835484e+000
    4.0937599889966165e+000 -1.0474746156602077e+000
    5.0485456578108536e+000 -1.1257649115427844e+000
    4.3768293972021644e+000 -1.2203313267520368e+000
    4.1889639416606599e+000 -1.0570137642434796e+000
    5.0015366770772394e+000 -1.1596797263171126e+000
    4.4194060961307970e+000 -1.2393704195783379e+000
    4.0736772597083712e+000 -1.0257600884941791e+000
    5.0595775624686938e+000 -1.2044078156495512e+000
    4.2974105738220203e+000 -1.2321787607407444e+000
    4.0417409372334765e+000 -1.0134213760862736e+000
    4.7541144463031246e+000 -1.2101824675769233e+000
    4.5070636360779943e+000 -1.2607061615330735e+000
    4.2728788740601225e+000 -1.0348285417545620e+000
    4.7466708608598385e+000 -1.2152486553958444e+000
    4.6286204708354379e+000 -1.2323602993708651e+000
    4.4571654621380494e+000 -1.0208830187723543e+000
    4.8296876034978808e+000 -1.2154601563844167e+000
    4.6284690393883050e+000 -1.2228419408038407e+000
    4.4219155851739051e+000 -1.0020201511671212e+000
    4.5861676821152022e+000 -1.1810167034681971e+000
    4.8369495435097463e+000 -1.2283829567619109e+000
    4.7281051902347144e+000 -9.8875058934535232e-001
    4.6039294587495956e+000 -1.2093478846987331e+000
    5.5457963152343543e+000 -1.2232124647699103e+000
    5.2869280201679585e+000 -9.5590037382420656e-001
    5.1168854736389715e+000 -1.1932952437404263e+000
    5.9251802184175189e+000 -1.2178400979171942e+000
    5.9181502963295598e+000 -9.7466698345425029e-001
    5.0713427069096779e+000 -1.1308750246827712e+000
    6.3394964539233847e+000 -1.2469416619940465e+000
    6.3729704403100973e+000 -9.9135159587292465e-001
    5.0783526299150523e+000 -1.1186463153781960e+000
    6.2134044805457620e+000 -1.1810642050823219e+000
    6.3610428229818226e+000 -9.6032870854716013e-001
    5.1509309128696010e+000 -1.1128807896773092e+000
    6.2632736157699522e+000 -1.1217205273797413e+000
    6.5604376789371397e+000 -9.3818539709725546e-001
    5.1046557097305030e+000 -1.0234448028874668e+000
    6.9556822787453667e+000 -1.1503362982715739e+000
    6.9525534185641025e+000 -9.1175596898643740e-001
    5.9949333644456679e+000 -1.1101341563760325e+000
    7.1937901688328116e+000 -1.0812163190974102e+000
    7.0853100650256913e+000 -8.6667351865273545e-001
    6.3422859547700750e+000 -1.0507985010852778e+000
    7.0497381281487854e+000 -1.0284315820109888e+000
    6.9101734592586439e+000 -8.2850941724781080e-001
    6.6198548008896418e+000 -1.0203507739386102e+000
    9.5457538645032276e+000 -8.1922451870889990e-001
    6.7796891546506775e+000 -8.3230149383965879e-001 1. 0.
    9.6991923319694759e+000 -8.6816821107064857e-001
    6.4658116205012988e+000 -8.5479326590220006e-001 1. 0.
    7.7474223386055669e+000 -1.1288342775015201e+000
    6.6698899438564867e+000 -8.5045613229773520e-001
    7.1054458266250116e+000 -1.0583406052457072e+000
    7.4950639863899085e+000 -1.1935707632688022e+000
    6.8224517225919632e+000 -9.0840903200853484e-001
    6.1195962624228599e+000 -1.0688467014203131e+000
    6.8891069434827630e+000 -1.1679849807540978e+000
    6.3771163415164596e+000 -9.0697152207178111e-001
    6.0201052265077957e+000 -1.0674617076363209e+000
    6.1723789199018064e+000 -1.1098677460780448e+000
    5.9339159778435429e+000 -8.8407854828131704e-001
    5.6809275967066304e+000 -1.0815479826056675e+000
